FANN_FLO_2.1
num_layers=4
learning_rate=0.100000
connection_rate=1.000000
network_type=0
learning_momentum=0.000000
training_algorithm=2
train_error_function=1
train_stop_function=0
cascade_output_change_fraction=0.010000
quickprop_decay=-0.000100
quickprop_mu=1.750000
rprop_increase_factor=1.200000
rprop_decrease_factor=0.500000
rprop_delta_min=0.000000
rprop_delta_max=50.000000
rprop_delta_zero=0.100000
cascade_output_stagnation_epochs=12
cascade_candidate_change_fraction=0.010000
cascade_candidate_stagnation_epochs=12
cascade_max_out_epochs=150
cascade_min_out_epochs=50
cascade_max_cand_epochs=150
cascade_min_cand_epochs=50
cascade_num_candidate_groups=2
bit_fail_limit=3.49999994039535522461e-01
cascade_candidate_limit=1.00000000000000000000e+03
cascade_weight_multiplier=4.00000005960464477539e-01
cascade_activation_functions_count=10
cascade_activation_functions=3 5 7 8 10 11 14 15 16 17 
cascade_activation_steepnesses_count=4
cascade_activation_steepnesses=2.50000000000000000000e-01 5.00000000000000000000e-01 7.50000000000000000000e-01 1.00000000000000000000e+00 
layer_sizes=2 11 7 2 
scale_included=0
neurons (num_inputs, activation_function, activation_steepness)=(0, 0, 0.00000000000000000000e+00) (0, 0, 0.00000000000000000000e+00) (2, 5, 5.00000000000000000000e-01) (2, 5, 5.00000000000000000000e-01) (2, 5, 5.00000000000000000000e-01) (2, 5, 5.00000000000000000000e-01) (2, 5, 5.00000000000000000000e-01) (2, 5, 5.00000000000000000000e-01) (2, 5, 5.00000000000000000000e-01) (2, 5, 5.00000000000000000000e-01) (2, 5, 5.00000000000000000000e-01) (2, 5, 5.00000000000000000000e-01) (0, 5, 0.00000000000000000000e+00) (11, 5, 5.00000000000000000000e-01) (11, 5, 5.00000000000000000000e-01) (11, 5, 5.00000000000000000000e-01) (11, 5, 5.00000000000000000000e-01) (11, 5, 5.00000000000000000000e-01) (11, 5, 5.00000000000000000000e-01) (0, 5, 0.00000000000000000000e+00) (7, 0, 5.00000000000000000000e-01) (0, 0, 0.00000000000000000000e+00) 
connections (connected_to_neuron, weight)=(0, 5.90540587902069091797e-01) (1, 4.07916545867919921875e+00) (0, 5.69704592227935791016e-01) (1, 3.90853524208068847656e+00) (0, 7.97879338264465332031e-01) (1, 2.90637898445129394531e+00) (0, 1.96657299995422363281e+00) (1, 4.45494508743286132812e+00) (0, 6.63492083549499511719e-01) (1, 3.87121272087097167969e+00) (0, 1.45355546474456787109e+00) (1, -9.71094965934753417969e-02) (0, -4.64891576766967773438e+00) (1, 9.55908477306365966797e-01) (0, 2.89448690414428710938e+00) (1, 4.35488271713256835938e+00) (0, 4.34170103073120117188e+00) (1, 6.31651353836059570312e+00) (0, 5.55875241756439208984e-01) (1, 3.99155235290527343750e+00) (2, 4.48438453674316406250e+00) (3, 4.43857574462890625000e+00) (4, 4.30257177352905273438e+00) (5, 5.56083440780639648438e+00) (6, 4.60915088653564453125e+00) (7, 8.95159065723419189453e-01) (8, 1.02850418090820312500e+01) (9, -5.83627176284790039062e+00) (10, 1.87347745895385742188e+00) (11, 4.48764896392822265625e+00) (12, 4.60534906387329101562e+00) (2, 2.11528611183166503906e+00) (3, 2.08939886093139648438e+00) (4, 1.53535354137420654297e+00) (5, 4.06190919876098632812e+00) (6, 1.91430211067199707031e+00) (7, 5.14099311828613281250e+00) (8, 8.34301567077636718750e+00) (9, -7.01230049133300781250e+00) (10, 5.72527170181274414062e-01) (11, 2.12506341934204101562e+00) (12, 3.08465623855590820312e+00) (2, 4.45313644409179687500e+00) (3, 4.44747066497802734375e+00) (4, 4.37867212295532226562e+00) (5, 5.53997611999511718750e+00) (6, 4.64656734466552734375e+00) (7, 7.06747472286224365234e-01) (8, 1.06890268325805664062e+01) (9, -5.21527099609375000000e+00) (10, 1.55505907535552978516e+00) (11, 4.47532987594604492188e+00) (12, 4.64429235458374023438e+00) (2, 1.19455301761627197266e+00) (3, 1.13356971740722656250e+00) (4, 3.60396575927734375000e+00) (5, 2.17501783370971679688e+00) (6, 1.05464279651641845703e+00) (7, 1.12306108474731445312e+01) (8, 4.12827634811401367188e+00) (9, -1.64045467376708984375e+01) (10, -7.71450996398925781250e-01) (11, 1.18571972846984863281e+00) (12, 1.18655002117156982422e+00) (2, 5.23520660400390625000e+00) (3, 5.39634847640991210938e+00) (4, 2.33733439445495605469e+00) (5, 4.41272020339965820312e+00) (6, 3.53075647354125976562e+00) (7, -2.39201948046684265137e-01) (8, -4.62087965011596679688e+00) (9, -1.46331429481506347656e+00) (10, 1.37749326229095458984e+00) (11, 5.36087560653686523438e+00) (12, 5.39602756500244140625e+00) (2, 1.91775572299957275391e+00) (3, 1.99025285243988037109e+00) (4, 2.00757908821105957031e+00) (5, 3.20131659507751464844e+00) (6, 2.45194244384765625000e+00) (7, 2.41539573669433593750e+00) (8, 6.05319738388061523438e+00) (9, -8.35344696044921875000e+00) (10, -1.62789022922515869141e+00) (11, 1.88901758193969726562e+00) (12, 4.06875038146972656250e+00) (13, 4.37249946594238281250e+00) (14, -4.09947872161865234375e-01) (15, 4.34230566024780273438e+00) (16, 1.72406158447265625000e+01) (17, 5.35222530364990234375e+00) (18, 1.99215173721313476562e+00) (19, 5.23817873001098632812e+00) 
