FANN_FLO_2.1
num_layers=5
learning_rate=0.100000
connection_rate=1.000000
network_type=0
learning_momentum=0.700000
training_algorithm=2
train_error_function=1
train_stop_function=0
cascade_output_change_fraction=0.010000
quickprop_decay=-0.000100
quickprop_mu=1.750000
rprop_increase_factor=0.900000
rprop_decrease_factor=0.600000
rprop_delta_min=0.000000
rprop_delta_max=49.000000
rprop_delta_zero=0.100000
cascade_output_stagnation_epochs=12
cascade_candidate_change_fraction=0.010000
cascade_candidate_stagnation_epochs=12
cascade_max_out_epochs=150
cascade_min_out_epochs=50
cascade_max_cand_epochs=150
cascade_min_cand_epochs=50
cascade_num_candidate_groups=2
bit_fail_limit=1.00000001490116119385e-01
cascade_candidate_limit=1.00000000000000000000e+03
cascade_weight_multiplier=4.00000005960464477539e-01
cascade_activation_functions_count=10
cascade_activation_functions=3 5 7 8 10 11 14 15 16 17 
cascade_activation_steepnesses_count=4
cascade_activation_steepnesses=2.50000000000000000000e-01 5.00000000000000000000e-01 7.50000000000000000000e-01 1.00000000000000000000e+00 
layer_sizes=2 13 18 13 2 
scale_included=0
neurons (num_inputs, activation_function, activation_steepness)=(0, 0, 0.00000000000000000000e+00) (0, 0, 0.00000000000000000000e+00) (2, 5, 5.00000000000000000000e-01) (2, 5, 5.00000000000000000000e-01) (2, 5, 5.00000000000000000000e-01) (2, 5, 5.00000000000000000000e-01) (2, 5, 5.00000000000000000000e-01) (2, 5, 5.00000000000000000000e-01) (2, 5, 5.00000000000000000000e-01) (2, 5, 5.00000000000000000000e-01) (2, 5, 5.00000000000000000000e-01) (2, 5, 5.00000000000000000000e-01) (2, 5, 5.00000000000000000000e-01) (2, 5, 5.00000000000000000000e-01) (0, 5, 0.00000000000000000000e+00) (13, 5, 5.00000000000000000000e-01) (13, 5, 5.00000000000000000000e-01) (13, 5, 5.00000000000000000000e-01) (13, 5, 5.00000000000000000000e-01) (13, 5, 5.00000000000000000000e-01) (13, 5, 5.00000000000000000000e-01) (13, 5, 5.00000000000000000000e-01) (13, 5, 5.00000000000000000000e-01) (13, 5, 5.00000000000000000000e-01) (13, 5, 5.00000000000000000000e-01) (13, 5, 5.00000000000000000000e-01) (13, 5, 5.00000000000000000000e-01) (13, 5, 5.00000000000000000000e-01) (13, 5, 5.00000000000000000000e-01) (13, 5, 5.00000000000000000000e-01) (13, 5, 5.00000000000000000000e-01) (13, 5, 5.00000000000000000000e-01) (0, 5, 0.00000000000000000000e+00) (18, 5, 5.00000000000000000000e-01) (18, 5, 5.00000000000000000000e-01) (18, 5, 5.00000000000000000000e-01) (18, 5, 5.00000000000000000000e-01) (18, 5, 5.00000000000000000000e-01) (18, 5, 5.00000000000000000000e-01) (18, 5, 5.00000000000000000000e-01) (18, 5, 5.00000000000000000000e-01) (18, 5, 5.00000000000000000000e-01) (18, 5, 5.00000000000000000000e-01) (18, 5, 5.00000000000000000000e-01) (18, 5, 5.00000000000000000000e-01) (0, 5, 0.00000000000000000000e+00) (13, 0, 5.00000000000000000000e-01) (0, 0, 0.00000000000000000000e+00) 
connections (connected_to_neuron, weight)=(0, 2.61266678571701049805e-01) (1, 2.04623627662658691406e+00) (0, 1.05830395221710205078e+00) (1, -9.19366717338562011719e-01) (0, 5.07601618766784667969e-01) (1, -1.71363085508346557617e-01) (0, 1.39384225010871887207e-01) (1, -5.56173801422119140625e-01) (0, 3.69988679885864257812e-01) (1, -5.86685538291931152344e-01) (0, 6.33824229240417480469e-01) (1, -7.78966724872589111328e-01) (0, 3.44715237617492675781e-01) (1, -6.45965218544006347656e-01) (0, 3.89379322528839111328e-01) (1, -7.03357934951782226562e-01) (0, 4.89214450120925903320e-01) (1, -8.30334603786468505859e-01) (0, 3.39127391576766967773e-01) (1, -5.76004147529602050781e-01) (0, 2.98097521066665649414e-01) (1, -5.36707937717437744141e-01) (0, 2.39347577095031738281e-01) (1, -1.56954854726791381836e-01) (2, -6.13099455833435058594e-01) (3, 1.59581685066223144531e+00) (4, 1.57042360305786132812e+00) (5, 2.19227313995361328125e+00) (6, 1.40878534317016601562e+00) (7, 1.27780199050903320312e+00) (8, 1.41143536567687988281e+00) (9, 1.51049411296844482422e+00) (10, 2.06420302391052246094e+00) (11, 1.45035719871520996094e+00) (12, 1.24586784839630126953e+00) (13, 1.51482510566711425781e+00) (14, -5.48362910747528076172e-01) (2, -4.79660809040069580078e-01) (3, 1.47913169860839843750e+00) (4, 1.48808777332305908203e+00) (5, 2.19914817810058593750e+00) (6, 1.15267539024353027344e+00) (7, 1.22792422771453857422e+00) (8, 1.38551521301269531250e+00) (9, 1.41677749156951904297e+00) (10, 1.85410058498382568359e+00) (11, 1.26476681232452392578e+00) (12, 1.23149704933166503906e+00) (13, 1.61121726036071777344e+00) (14, -4.18598473072052001953e-01) (2, 9.28745329380035400391e-01) (3, 9.70353186130523681641e-01) (4, 1.66115641593933105469e+00) (5, 6.05910658836364746094e-01) (6, 8.10774207115173339844e-01) (7, 6.97007000446319580078e-01) (8, 9.24620866775512695312e-01) (9, 9.74017620086669921875e-01) (10, 1.13948857784271240234e+00) (11, 7.80241727828979492188e-01) (12, 1.00701558589935302734e+00) (13, 1.62848210334777832031e+00) (14, 1.65777385234832763672e+00) (2, 1.56284594535827636719e+00) (3, 4.81464445590972900391e-01) (4, 1.87888705730438232422e+00) (5, 2.34081879258155822754e-01) (6, 6.63071036338806152344e-01) (7, 2.92796075344085693359e-01) (8, 7.91840136051177978516e-01) (9, 6.33543908596038818359e-01) (10, 5.91856420040130615234e-01) (11, 8.76461267471313476562e-01) (12, 7.15165197849273681641e-01) (13, 1.98084998130798339844e+00) (14, 2.34241580963134765625e+00) (2, 1.46788465976715087891e+00) (3, 5.80705463886260986328e-01) (4, 1.84771621227264404297e+00) (5, 6.34220182895660400391e-01) (6, 6.68571293354034423828e-01) (7, 1.98615670204162597656e-01) (8, 6.76435708999633789062e-01) (9, 5.55535078048706054688e-01) (10, 7.71538317203521728516e-01) (11, 8.20791721343994140625e-01) (12, 5.98794817924499511719e-01) (13, 1.98067116737365722656e+00) (14, 1.45107209682464599609e+00) (2, 1.62528967857360839844e+00) (3, 5.68208277225494384766e-01) (4, 1.94442582130432128906e+00) (5, 4.65088099241256713867e-01) (6, 8.33308339118957519531e-01) (7, 3.12593966722488403320e-01) (8, 4.93803858757019042969e-01) (9, 3.52633148431777954102e-01) (10, 9.51192021369934082031e-01) (11, 7.56311118602752685547e-01) (12, 3.79339754581451416016e-01) (13, 2.00440502166748046875e+00) (14, 2.38303303718566894531e+00) (2, -4.65363949537277221680e-01) (3, 1.30051374435424804688e+00) (4, 1.60904848575592041016e+00) (5, 2.41613459587097167969e+00) (6, 1.16903209686279296875e+00) (7, 1.24605202674865722656e+00) (8, 1.41747891902923583984e+00) (9, 1.45219445228576660156e+00) (10, 1.97917890548706054688e+00) (11, 1.05786955356597900391e+00) (12, 1.11312353610992431641e+00) (13, 1.51935625076293945312e+00) (14, -3.27519178390502929688e-01) (2, -3.46333891153335571289e-01) (3, 1.63596129417419433594e+00) (4, 1.46192884445190429688e+00) (5, 2.30833339691162109375e+00) (6, 1.08462369441986083984e+00) (7, 1.16437065601348876953e+00) (8, 1.39135193824768066406e+00) (9, 1.53157508373260498047e+00) (10, 1.95188057422637939453e+00) (11, 1.22960150241851806641e+00) (12, 1.29883956909179687500e+00) (13, 1.47233748435974121094e+00) (14, -4.61895644664764404297e-01) (2, -8.22515010833740234375e-01) (3, 1.67223346233367919922e+00) (4, 7.06200420856475830078e-01) (5, 2.02450680732727050781e+00) (6, 8.71019005775451660156e-01) (7, 1.16577970981597900391e+00) (8, 1.14696812629699707031e+00) (9, 1.13430392742156982422e+00) (10, 1.69944632053375244141e+00) (11, 8.68291735649108886719e-01) (12, 7.99517631530761718750e-01) (13, 9.06839370727539062500e-01) (14, -6.87973022460937500000e-01) (2, -9.87604022026062011719e-01) (3, 1.45468246936798095703e+00) (4, 1.09429097175598144531e+00) (5, 2.17225694656372070312e+00) (6, 1.76451253890991210938e+00) (7, 2.06911540031433105469e+00) (8, 1.81495308876037597656e+00) (9, 2.01879072189331054688e+00) (10, 1.74117922782897949219e+00) (11, 1.62186849117279052734e+00) (12, 1.53696835041046142578e+00) (13, 1.38722884654998779297e+00) (14, -8.37530195713043212891e-01) (2, 1.52797830104827880859e+00) (3, 6.15431666374206542969e-01) (4, 1.98124051094055175781e+00) (5, 5.26811480522155761719e-01) (6, 6.36928021907806396484e-01) (7, 3.04706901311874389648e-01) (8, 7.67063736915588378906e-01) (9, 3.71203511953353881836e-01) (10, 8.42951178550720214844e-01) (11, 5.89414179325103759766e-01) (12, 5.75567960739135742188e-01) (13, 1.87411129474639892578e+00) (14, 2.34599971771240234375e+00) (2, -1.18145430088043212891e+00) (3, 1.28262674808502197266e+00) (4, 1.38725268840789794922e+00) (5, 2.14141845703125000000e+00) (6, 1.81011033058166503906e+00) (7, 1.91880798339843750000e+00) (8, 1.95263290405273437500e+00) (9, 1.99210989475250244141e+00) (10, 1.77974724769592285156e+00) (11, 1.79697751998901367188e+00) (12, 1.67723572254180908203e+00) (13, 1.36766612529754638672e+00) (14, -9.14860665798187255859e-01) (2, 1.53833627700805664062e+00) (3, 5.08875668048858642578e-01) (4, 1.83302903175354003906e+00) (5, 4.35811489820480346680e-01) (6, 7.04667806625366210938e-01) (7, 2.65354901552200317383e-01) (8, 6.68928861618041992188e-01) (9, 4.91725534200668334961e-01) (10, 8.94585013389587402344e-01) (11, 8.57716143131256103516e-01) (12, 7.72414565086364746094e-01) (13, 1.98580038547515869141e+00) (14, 2.33390259742736816406e+00) (2, 1.51169824600219726562e+00) (3, 6.13186895847320556641e-01) (4, 7.68465161323547363281e-01) (5, 1.59553289413452148438e-01) (6, 7.70733237266540527344e-01) (7, 4.85147863626480102539e-01) (8, 7.63401985168457031250e-01) (9, 7.44784176349639892578e-01) (10, 6.38693034648895263672e-01) (11, 8.20143938064575195312e-01) (12, 8.37436020374298095703e-01) (13, 1.03431856632232666016e+00) (14, 1.44406616687774658203e+00) (2, 1.86465710401535034180e-01) (3, 8.64877045154571533203e-01) (4, 1.19085478782653808594e+00) (5, 1.95223832130432128906e+00) (6, 6.40749454498291015625e-01) (7, 6.35848939418792724609e-01) (8, 1.18129658699035644531e+00) (9, 9.66281950473785400391e-01) (10, 1.59425759315490722656e+00) (11, 7.88125634193420410156e-01) (12, 1.06077671051025390625e+00) (13, 1.44787681102752685547e+00) (14, 6.39585852622985839844e-01) (2, -8.10870766639709472656e-01) (3, 1.66245436668395996094e+00) (4, 1.26093161106109619141e+00) (5, 1.92037749290466308594e+00) (6, 8.27148914337158203125e-01) (7, 1.27529740333557128906e+00) (8, 1.22681093215942382812e+00) (9, 1.16246044635772705078e+00) (10, 1.76687014102935791016e+00) (11, 7.50565528869628906250e-01) (12, 8.33096206188201904297e-01) (13, 1.50299680233001708984e+00) (14, -5.62462806701660156250e-01) (2, -4.65280830860137939453e-01) (3, 1.14889454841613769531e+00) (4, 9.43626701831817626953e-01) (5, 1.42807126045227050781e+00) (6, 1.42106771469116210938e+00) (7, 1.31256258487701416016e+00) (8, 1.60217988491058349609e+00) (9, 1.63635861873626708984e+00) (10, 1.11467897891998291016e+00) (11, 1.41210317611694335938e+00) (12, 1.51119077205657958984e+00) (13, 1.08866727352142333984e+00) (14, -4.59854513406753540039e-01) (15, 1.63602793216705322266e+00) (16, 1.41032290458679199219e+00) (17, 5.44277071952819824219e-01) (18, -6.07957422733306884766e-01) (19, -4.19895291328430175781e-01) (20, -6.52520596981048583984e-01) (21, 1.36143767833709716797e+00) (22, 1.63872337341308593750e+00) (23, 9.93531763553619384766e-01) (24, 1.19449520111083984375e+00) (25, -5.70205330848693847656e-01) (26, 1.43751120567321777344e+00) (27, -6.59894347190856933594e-01) (28, -5.15618801116943359375e-01) (29, 7.82374262809753417969e-01) (30, 1.38848590850830078125e+00) (31, 1.27471947669982910156e+00) (32, -6.01364433765411376953e-01) (15, 1.25417447090148925781e+00) (16, 1.32307517528533935547e+00) (17, 9.71448957920074462891e-01) (18, 1.87824010848999023438e+00) (19, 1.74265038967132568359e+00) (20, 1.78031945228576660156e+00) (21, 1.31599295139312744141e+00) (22, 1.15610587596893310547e+00) (23, 9.80375707149505615234e-01) (24, 9.46663737297058105469e-01) (25, 1.80929100513458251953e+00) (26, 4.92287069559097290039e-01) (27, 1.90368342399597167969e+00) (28, 1.90981972217559814453e+00) (29, 1.91929268836975097656e+00) (30, 1.02675020694732666016e+00) (31, 1.70841181278228759766e+00) (32, 2.08943772315979003906e+00) (15, 1.51110780239105224609e+00) (16, 1.48061227798461914062e+00) (17, 5.78386723995208740234e-01) (18, -5.43357133865356445312e-01) (19, 3.50150205194950103760e-02) (20, -6.48899734020233154297e-01) (21, 1.72797191143035888672e+00) (22, 1.39255082607269287109e+00) (23, 7.70248770713806152344e-01) (24, 1.60058557987213134766e+00) (25, -5.95295727252960205078e-01) (26, 1.78289389610290527344e+00) (27, -5.19830763339996337891e-01) (28, -3.68719905614852905273e-01) (29, 9.90142166614532470703e-01) (30, 1.09025156497955322266e+00) (31, 1.25772655010223388672e+00) (32, -6.02429211139678955078e-01) (15, 3.22537904139608144760e-04) (16, -3.56758665293455123901e-03) (17, -5.45470833778381347656e-01) (18, -5.60887753963470458984e-01) (19, -6.01603567600250244141e-01) (20, -6.02054476737976074219e-01) (21, -1.68784782290458679199e-01) (22, 8.95805358886718750000e-02) (23, -2.78400868177413940430e-01) (24, -1.86370283365249633789e-01) (25, -5.39043009281158447266e-01) (26, 2.08736494183540344238e-01) (27, -6.22223019599914550781e-01) (28, -6.13375246524810791016e-01) (29, -4.82393682003021240234e-01) (30, -5.52783198654651641846e-02) (31, -3.78413289785385131836e-01) (32, 1.10624067485332489014e-01) (15, 1.37953054904937744141e+00) (16, 1.51327550411224365234e+00) (17, 1.18003392219543457031e+00) (18, 1.60120439529418945312e+00) (19, 1.63541102409362792969e+00) (20, 1.68240976333618164062e+00) (21, 1.43654084205627441406e+00) (22, 1.45807838439941406250e+00) (23, 7.12807714939117431641e-01) (24, 7.55156755447387695312e-01) (25, 1.42523431777954101562e+00) (26, 9.24609422683715820312e-01) (27, 1.55748558044433593750e+00) (28, 1.53258097171783447266e+00) (29, 1.97590124607086181641e+00) (30, 7.25757241249084472656e-01) (31, 1.69835972785949707031e+00) (32, 1.64666318893432617188e+00) (15, 1.35025167465209960938e+00) (16, 1.32514345645904541016e+00) (17, 1.32046914100646972656e+00) (18, 1.72249448299407958984e+00) (19, 1.54997920989990234375e+00) (20, 1.71740543842315673828e+00) (21, 1.35427153110504150391e+00) (22, 1.30677759647369384766e+00) (23, 8.15561771392822265625e-01) (24, 8.95917594432830810547e-01) (25, 1.65230858325958251953e+00) (26, 8.42586159706115722656e-01) (27, 1.66703045368194580078e+00) (28, 1.63302099704742431641e+00) (29, 2.11039090156555175781e+00) (30, 8.24231863021850585938e-01) (31, 1.50203239917755126953e+00) (32, 1.90686440467834472656e+00) (15, 1.66659951210021972656e+00) (16, 1.63383364677429199219e+00) (17, 5.91228127479553222656e-01) (18, -4.24119502305984497070e-01) (19, -6.27899944782257080078e-01) (20, -5.29713273048400878906e-01) (21, 1.56913018226623535156e+00) (22, 1.69308412075042724609e+00) (23, 1.17655456066131591797e+00) (24, 1.61895191669464111328e+00) (25, -4.57189977169036865234e-01) (26, 1.80456376075744628906e+00) (27, -4.89549547433853149414e-01) (28, -5.10048866271972656250e-01) (29, 8.40661227703094482422e-01) (30, 1.37848865985870361328e+00) (31, 1.25056588649749755859e+00) (32, -5.88422775268554687500e-01) (15, 1.33628904819488525391e+00) (16, 1.24005007743835449219e+00) (17, 6.76112771034240722656e-01) (18, -3.98213714361190795898e-01) (19, -1.90680176019668579102e-01) (20, -3.81436705589294433594e-01) (21, 1.37817096710205078125e+00) (22, 1.30220401287078857422e+00) (23, 1.02989315986633300781e+00) (24, 1.66834867000579833984e+00) (25, -5.65271139144897460938e-01) (26, 1.92038977146148681641e+00) (27, -2.88115113973617553711e-01) (28, -3.53593468666076660156e-01) (29, 8.85529518127441406250e-01) (30, 1.34155309200286865234e+00) (31, 1.21459519863128662109e+00) (32, -7.19697833061218261719e-01) (15, -1.04097723960876464844e-01) (16, -2.99613893032073974609e-01) (17, -1.08807778358459472656e+00) (18, -4.94675129652023315430e-01) (19, -4.65441823005676269531e-01) (20, -3.96412014961242675781e-01) (21, -2.03717708587646484375e-01) (22, -1.85201078653335571289e-01) (23, 3.03803771734237670898e-01) (24, 4.64571386575698852539e-01) (25, -4.69184011220932006836e-01) (26, 1.08717553317546844482e-01) (27, -5.52427291870117187500e-01) (28, -3.99794071912765502930e-01) (29, -8.69699180126190185547e-01) (30, 2.03123614192008972168e-01) (31, 4.99995052814483642578e-01) (32, -3.93802493810653686523e-01) (15, 5.79265654087066650391e-01) (16, 3.97588700056076049805e-01) (17, -9.10645902156829833984e-01) (18, -1.96658000349998474121e-01) (19, -8.57070013880729675293e-02) (20, -1.39493256807327270508e-01) (21, 1.94853246212005615234e-01) (22, 3.44758301973342895508e-01) (23, 3.13897073268890380859e-01) (24, 3.23424249887466430664e-01) (25, -1.43643498420715332031e-01) (26, 1.82456579059362411499e-02) (27, -7.65617340803146362305e-02) (28, -1.72641560435295104980e-01) (29, -6.94285452365875244141e-01) (30, 5.30043423175811767578e-01) (31, 3.54450881481170654297e-01) (32, 8.66341650485992431641e-01) (15, 9.54204082489013671875e-01) (16, 9.45067107677459716797e-01) (17, -5.41256248950958251953e-01) (18, -4.27983373403549194336e-01) (19, -3.32070022821426391602e-01) (20, -3.36273252964019775391e-01) (21, 1.24233639240264892578e+00) (22, 7.92442917823791503906e-01) (23, 9.93775308132171630859e-01) (24, 9.98513162136077880859e-01) (25, -4.93518918752670288086e-01) (26, 1.11396086215972900391e+00) (27, -4.94995445013046264648e-01) (28, -3.89342814683914184570e-01) (29, 2.00141713023185729980e-01) (30, 7.28853106498718261719e-01) (31, 1.02424621582031250000e+00) (32, -3.60144346952438354492e-01) (15, 5.43755710124969482422e-01) (16, 4.81975197792053222656e-01) (17, 7.96665325760841369629e-02) (18, -2.48278141021728515625e-01) (19, -1.11401431262493133545e-01) (20, -1.48123741149902343750e-01) (21, 5.72740852832794189453e-01) (22, 5.90439558029174804688e-01) (23, 7.64456927776336669922e-01) (24, 6.09140396118164062500e-01) (25, -1.33939847350120544434e-01) (26, 1.00531792640686035156e+00) (27, -1.41380935907363891602e-01) (28, -3.12861144542694091797e-01) (29, 1.36851996183395385742e-01) (30, 7.42112040519714355469e-01) (31, 2.15382516384124755859e-01) (32, -3.61442565917968750000e-01) (33, 1.87218713760375976562e+00) (34, -9.64950263500213623047e-01) (35, 1.40505969524383544922e+00) (36, 2.48477196693420410156e+00) (37, -8.14963281154632568359e-01) (38, -8.03669393062591552734e-01) (39, 1.70438253879547119141e+00) (40, 1.72539234161376953125e+00) (41, 2.10643029212951660156e+00) (42, 7.44433522224426269531e-01) (43, 1.31336688995361328125e-01) (44, 6.62642180919647216797e-01) (45, -8.75537812709808349609e-01) 
