FANN_FLO_2.1
num_layers=5
learning_rate=0.100000
connection_rate=1.000000
network_type=0
learning_momentum=0.800000
training_algorithm=2
train_error_function=1
train_stop_function=0
cascade_output_change_fraction=0.010000
quickprop_decay=-0.000100
quickprop_mu=1.750000
rprop_increase_factor=1.200000
rprop_decrease_factor=0.500000
rprop_delta_min=0.000000
rprop_delta_max=50.000000
rprop_delta_zero=0.100000
cascade_output_stagnation_epochs=12
cascade_candidate_change_fraction=0.010000
cascade_candidate_stagnation_epochs=12
cascade_max_out_epochs=150
cascade_min_out_epochs=50
cascade_max_cand_epochs=150
cascade_min_cand_epochs=50
cascade_num_candidate_groups=2
bit_fail_limit=3.49999994039535522461e-01
cascade_candidate_limit=1.00000000000000000000e+03
cascade_weight_multiplier=4.00000005960464477539e-01
cascade_activation_functions_count=10
cascade_activation_functions=3 5 7 8 10 11 14 15 16 17 
cascade_activation_steepnesses_count=4
cascade_activation_steepnesses=2.50000000000000000000e-01 5.00000000000000000000e-01 7.50000000000000000000e-01 1.00000000000000000000e+00 
layer_sizes=2 11 11 9 2 
scale_included=0
neurons (num_inputs, activation_function, activation_steepness)=(0, 0, 0.00000000000000000000e+00) (0, 0, 0.00000000000000000000e+00) (2, 5, 5.00000000000000000000e-01) (2, 5, 5.00000000000000000000e-01) (2, 5, 5.00000000000000000000e-01) (2, 5, 5.00000000000000000000e-01) (2, 5, 5.00000000000000000000e-01) (2, 5, 5.00000000000000000000e-01) (2, 5, 5.00000000000000000000e-01) (2, 5, 5.00000000000000000000e-01) (2, 5, 5.00000000000000000000e-01) (2, 5, 5.00000000000000000000e-01) (0, 5, 0.00000000000000000000e+00) (11, 5, 5.00000000000000000000e-01) (11, 5, 5.00000000000000000000e-01) (11, 5, 5.00000000000000000000e-01) (11, 5, 5.00000000000000000000e-01) (11, 5, 5.00000000000000000000e-01) (11, 5, 5.00000000000000000000e-01) (11, 5, 5.00000000000000000000e-01) (11, 5, 5.00000000000000000000e-01) (11, 5, 5.00000000000000000000e-01) (11, 5, 5.00000000000000000000e-01) (0, 5, 0.00000000000000000000e+00) (11, 5, 5.00000000000000000000e-01) (11, 5, 5.00000000000000000000e-01) (11, 5, 5.00000000000000000000e-01) (11, 5, 5.00000000000000000000e-01) (11, 5, 5.00000000000000000000e-01) (11, 5, 5.00000000000000000000e-01) (11, 5, 5.00000000000000000000e-01) (11, 5, 5.00000000000000000000e-01) (0, 5, 0.00000000000000000000e+00) (9, 0, 5.00000000000000000000e-01) (0, 0, 0.00000000000000000000e+00) 
connections (connected_to_neuron, weight)=(0, 1.26123011112213134766e+00) (1, -2.53987360000610351562e+00) (0, -1.49989855957031250000e+03) (1, -2.59600658416748046875e+01) (0, 1.18427805602550506592e-01) (1, 3.17716985940933227539e-01) (0, 9.55473557114601135254e-02) (1, 4.77403372526168823242e-01) (0, 5.83058893680572509766e-01) (1, -1.56822276115417480469e+00) (0, 6.24536991119384765625e-01) (1, -2.10103631019592285156e+00) (0, 4.79283899068832397461e-01) (1, 2.63635627925395965576e-02) (0, 1.23674400150775909424e-01) (1, 2.77935594320297241211e-01) (0, 4.79526102542877197266e-01) (1, -9.52408537268638610840e-02) (0, -7.30478584766387939453e-01) (1, -3.56963962316513061523e-01) (2, 5.88829612731933593750e+00) (3, 1.15216374397277832031e-01) (4, 2.98844635486602783203e-01) (5, 2.84802734851837158203e-01) (6, 5.81653714179992675781e-01) (7, 5.73348999023437500000e-01) (8, 1.56325429677963256836e-01) (9, 2.72909224033355712891e-01) (10, 2.37880706787109375000e-01) (11, -7.45272338390350341797e-02) (12, 1.15582711994647979736e-01) (2, 1.91355152130126953125e+01) (3, 3.37808549404144287109e-01) (4, 7.08412826061248779297e-01) (5, 6.70677423477172851562e-01) (6, 1.03413856029510498047e+00) (7, 8.48709821701049804688e-01) (8, 2.93125718832015991211e-01) (9, 6.09531164169311523438e-01) (10, 1.93433061242103576660e-01) (11, 4.55121040344238281250e-01) (12, 9.73948657512664794922e-01) (2, -6.00938987731933593750e+00) (3, -1.21567153930664062500e+00) (4, 1.03827285766601562500e+00) (5, 1.63340663909912109375e+00) (6, -5.62374382019042968750e+01) (7, -8.34117698669433593750e+00) (8, 3.97826164960861206055e-01) (9, 1.01966953277587890625e+00) (10, 4.50306028127670288086e-01) (11, 1.06739945709705352783e-01) (12, 5.63435745239257812500e+00) (2, -1.59221105575561523438e+01) (3, -1.33173716068267822266e+00) (4, 9.92970764636993408203e-01) (5, 1.66271924972534179688e+00) (6, -3.76691603660583496094e+00) (7, -4.28922176361083984375e+00) (8, 3.83313208818435668945e-01) (9, 1.03852200508117675781e+00) (10, 3.89784336090087890625e-01) (11, 2.56010055541992187500e-01) (12, 5.83401250839233398438e+00) (2, -3.71357381343841552734e-01) (3, 7.93471217155456542969e-01) (4, 3.78250814974308013916e-02) (5, 8.84997844696044921875e-02) (6, 5.35854160785675048828e-01) (7, 6.60242378711700439453e-01) (8, 4.94740247726440429688e-01) (9, 3.40171046555042266846e-02) (10, 4.31681901216506958008e-01) (11, 5.86045861244201660156e-01) (12, 2.63006120920181274414e-01) (2, 1.47751083374023437500e+01) (3, 2.37492874264717102051e-01) (4, 4.02810901403427124023e-01) (5, 3.78359764814376831055e-01) (6, 1.17348229885101318359e+00) (7, 2.69598770141601562500e+00) (8, 6.26035332679748535156e-02) (9, 2.50354200601577758789e-01) (10, 1.43284397199749946594e-02) (11, 3.66257011890411376953e-01) (12, 1.29133546352386474609e+00) (2, 1.89025712013244628906e+00) (3, 9.05121415853500366211e-02) (4, 2.19194412231445312500e-01) (5, 1.11514598131179809570e-01) (6, 6.09349846839904785156e-01) (7, 5.78218936920166015625e-01) (8, 2.60502666234970092773e-01) (9, 1.96548148989677429199e-01) (10, 2.16159924864768981934e-01) (11, -6.42385333776473999023e-02) (12, 1.08173273503780364990e-01) (2, 1.33736991882324218750e+00) (3, 1.05620473623275756836e-01) (4, 9.93587970733642578125e-02) (5, 1.24147661030292510986e-01) (6, 6.34562134742736816406e-01) (7, 6.69156312942504882812e-01) (8, 1.12447097897529602051e-01) (9, 2.43640452623367309570e-01) (10, 1.36109739542007446289e-01) (11, -5.71854114532470703125e-02) (12, -5.64636588096618652344e-02) (2, 4.63492691516876220703e-01) (3, 2.46991794556379318237e-02) (4, 7.00080633163452148438e-01) (5, 5.83404123783111572266e-01) (6, 4.23055946826934814453e-01) (7, 7.55433440208435058594e-01) (8, 2.37902045249938964844e-01) (9, 7.22824335098266601562e-01) (10, 1.73346951603889465332e-01) (11, 1.53202831745147705078e-01) (12, -3.44106853008270263672e-02) (2, -2.23581027984619140625e+00) (3, 6.43772423267364501953e-01) (4, -1.97021380066871643066e-01) (5, -1.07661098241806030273e-01) (6, 6.69846475124359130859e-01) (7, 3.23700976371765136719e+00) (8, 6.04694068431854248047e-01) (9, -2.01934412121772766113e-01) (10, 4.72169190645217895508e-01) (11, 8.54552209377288818359e-01) (12, 4.20077830553054809570e-01) (13, 2.52311944961547851562e-01) (14, 7.43882656097412109375e-02) (15, 1.07617355883121490479e-01) (16, 6.70858621597290039062e-02) (17, 5.34208416938781738281e-01) (18, 1.23371794819831848145e-01) (19, 2.56693772971630096436e-02) (20, 5.33670447766780853271e-02) (21, -1.76431536674499511719e-01) (22, 4.57058906555175781250e-01) (23, -9.30948331952095031738e-02) (13, 1.17354259490966796875e+01) (14, 7.80618429183959960938e-01) (15, -1.69731095433235168457e-01) (16, -8.75296890735626220703e-02) (17, 4.59303073585033416748e-02) (18, 6.42655909061431884766e-01) (19, 5.44860458374023437500e+00) (20, 6.83127832412719726562e+00) (21, -1.92741200327873229980e-01) (22, 1.74442790448665618896e-02) (23, 2.67661511898040771484e-01) (13, 4.39557462930679321289e-01) (14, 5.03002226352691650391e-01) (15, 2.30091094970703125000e+00) (16, 2.28603625297546386719e+00) (17, 2.02646970748901367188e-01) (18, 4.70392674207687377930e-01) (19, 5.35332620143890380859e-01) (20, 7.94800996780395507812e-01) (21, 4.46343570947647094727e-01) (22, 1.33507907390594482422e-01) (23, 2.44482564926147460938e+00) (13, 1.52437257766723632812e+01) (14, 3.60020041465759277344e+00) (15, 2.64797359704971313477e-01) (16, 4.03914809226989746094e-01) (17, -4.39851619303226470947e-02) (18, 1.18528282642364501953e+00) (19, 1.38263540267944335938e+01) (20, 1.01268148422241210938e+01) (21, -7.46626496315002441406e-01) (22, -3.27589124441146850586e-01) (23, 3.97036463022232055664e-01) (13, 1.07103931903839111328e+00) (14, 7.53769874572753906250e-01) (15, -2.80311018228530883789e-01) (16, -2.51068592071533203125e-01) (17, 3.16668957471847534180e-01) (18, 7.55472600460052490234e-01) (19, 9.82033848762512207031e-01) (20, 9.01213824748992919922e-01) (21, 4.71262866631150245667e-03) (22, 3.63569296896457672119e-02) (23, 6.54079839587211608887e-02) (13, 2.24130973219871520996e-01) (14, 7.28599354624748229980e-02) (15, 6.90173059701919555664e-02) (16, 6.89937248826026916504e-02) (17, 4.69608098268508911133e-01) (18, 2.20489233732223510742e-01) (19, 4.34582345187664031982e-02) (20, 1.75124660134315490723e-01) (21, -1.89254596829414367676e-01) (22, 3.92267733812332153320e-01) (23, -1.06885395944118499756e-01) (13, -1.95488303899765014648e-01) (14, -2.80578881502151489258e-01) (15, -6.63397908210754394531e-01) (16, -5.10290861129760742188e-01) (17, 8.83972227573394775391e-01) (18, 5.17498813569545745850e-02) (19, -8.49287211894989013672e-01) (20, -2.45517492294311523438e-01) (21, 2.80346095561981201172e-01) (22, 1.15305030345916748047e+00) (23, 9.33629423379898071289e-02) (13, -1.48062661290168762207e-01) (14, -3.00648450851440429688e-01) (15, -1.16381525993347167969e+00) (16, -1.07847893238067626953e+00) (17, 9.21373128890991210938e-01) (18, 1.38267874717712402344e-01) (19, -9.40694928169250488281e-01) (20, -1.69181510806083679199e-01) (21, 4.50526028871536254883e-02) (22, 1.34733879566192626953e+00) (23, -5.48898458480834960938e-01) (24, 7.74618029594421386719e-01) (25, 3.68554294109344482422e-01) (26, -1.06540016829967498779e-01) (27, 1.79864183068275451660e-01) (28, 6.92916989326477050781e-01) (29, 1.50653445720672607422e+00) (30, 5.39839982986450195312e-01) (31, 5.39486229419708251953e-01) (32, -1.40371590852737426758e-01) 
