FANN_FLO_2.1
num_layers=7
learning_rate=0.200000
connection_rate=1.000000
network_type=0
learning_momentum=0.700000
training_algorithm=2
train_error_function=0
train_stop_function=0
cascade_output_change_fraction=0.010000
quickprop_decay=-0.000100
quickprop_mu=1.750000
rprop_increase_factor=0.800000
rprop_decrease_factor=0.600000
rprop_delta_min=0.000000
rprop_delta_max=49.000000
rprop_delta_zero=0.100000
cascade_output_stagnation_epochs=12
cascade_candidate_change_fraction=0.010000
cascade_candidate_stagnation_epochs=12
cascade_max_out_epochs=150
cascade_min_out_epochs=50
cascade_max_cand_epochs=150
cascade_min_cand_epochs=50
cascade_num_candidate_groups=2
bit_fail_limit=1.00000001490116119385e-01
cascade_candidate_limit=1.00000000000000000000e+03
cascade_weight_multiplier=4.00000005960464477539e-01
cascade_activation_functions_count=10
cascade_activation_functions=3 5 7 8 10 11 14 15 16 17 
cascade_activation_steepnesses_count=4
cascade_activation_steepnesses=2.50000000000000000000e-01 5.00000000000000000000e-01 7.50000000000000000000e-01 1.00000000000000000000e+00 
layer_sizes=3 33 42 53 42 25 2 
scale_included=0
neurons (num_inputs, activation_function, activation_steepness)=(0, 0, 0.00000000000000000000e+00) (0, 0, 0.00000000000000000000e+00) (0, 0, 0.00000000000000000000e+00) (3, 5, 5.00000000000000000000e-01) (3, 5, 5.00000000000000000000e-01) (3, 5, 5.00000000000000000000e-01) (3, 5, 5.00000000000000000000e-01) (3, 5, 5.00000000000000000000e-01) (3, 5, 5.00000000000000000000e-01) (3, 5, 5.00000000000000000000e-01) (3, 5, 5.00000000000000000000e-01) (3, 5, 5.00000000000000000000e-01) (3, 5, 5.00000000000000000000e-01) (3, 5, 5.00000000000000000000e-01) (3, 5, 5.00000000000000000000e-01) (3, 5, 5.00000000000000000000e-01) (3, 5, 5.00000000000000000000e-01) (3, 5, 5.00000000000000000000e-01) (3, 5, 5.00000000000000000000e-01) (3, 5, 5.00000000000000000000e-01) (3, 5, 5.00000000000000000000e-01) (3, 5, 5.00000000000000000000e-01) (3, 5, 5.00000000000000000000e-01) (3, 5, 5.00000000000000000000e-01) (3, 5, 5.00000000000000000000e-01) (3, 5, 5.00000000000000000000e-01) (3, 5, 5.00000000000000000000e-01) (3, 5, 5.00000000000000000000e-01) (3, 5, 5.00000000000000000000e-01) (3, 5, 5.00000000000000000000e-01) (3, 5, 5.00000000000000000000e-01) (3, 5, 5.00000000000000000000e-01) (3, 5, 5.00000000000000000000e-01) (3, 5, 5.00000000000000000000e-01) (3, 5, 5.00000000000000000000e-01) (0, 5, 0.00000000000000000000e+00) (33, 5, 5.00000000000000000000e-01) (33, 5, 5.00000000000000000000e-01) (33, 5, 5.00000000000000000000e-01) (33, 5, 5.00000000000000000000e-01) (33, 5, 5.00000000000000000000e-01) (33, 5, 5.00000000000000000000e-01) (33, 5, 5.00000000000000000000e-01) (33, 5, 5.00000000000000000000e-01) (33, 5, 5.00000000000000000000e-01) (33, 5, 5.00000000000000000000e-01) (33, 5, 5.00000000000000000000e-01) (33, 5, 5.00000000000000000000e-01) (33, 5, 5.00000000000000000000e-01) (33, 5, 5.00000000000000000000e-01) (33, 5, 5.00000000000000000000e-01) (33, 5, 5.00000000000000000000e-01) (33, 5, 5.00000000000000000000e-01) (33, 5, 5.00000000000000000000e-01) (33, 5, 5.00000000000000000000e-01) (33, 5, 5.00000000000000000000e-01) (33, 5, 5.00000000000000000000e-01) (33, 5, 5.00000000000000000000e-01) (33, 5, 5.00000000000000000000e-01) (33, 5, 5.00000000000000000000e-01) (33, 5, 5.00000000000000000000e-01) (33, 5, 5.00000000000000000000e-01) (33, 5, 5.00000000000000000000e-01) (33, 5, 5.00000000000000000000e-01) (33, 5, 5.00000000000000000000e-01) (33, 5, 5.00000000000000000000e-01) (33, 5, 5.00000000000000000000e-01) (33, 5, 5.00000000000000000000e-01) (33, 5, 5.00000000000000000000e-01) (33, 5, 5.00000000000000000000e-01) (33, 5, 5.00000000000000000000e-01) (33, 5, 5.00000000000000000000e-01) (33, 5, 5.00000000000000000000e-01) (33, 5, 5.00000000000000000000e-01) (33, 5, 5.00000000000000000000e-01) (33, 5, 5.00000000000000000000e-01) (33, 5, 5.00000000000000000000e-01) (0, 5, 0.00000000000000000000e+00) (42, 5, 5.00000000000000000000e-01) (42, 5, 5.00000000000000000000e-01) (42, 5, 5.00000000000000000000e-01) (42, 5, 5.00000000000000000000e-01) (42, 5, 5.00000000000000000000e-01) (42, 5, 5.00000000000000000000e-01) (42, 5, 5.00000000000000000000e-01) (42, 5, 5.00000000000000000000e-01) (42, 5, 5.00000000000000000000e-01) (42, 5, 5.00000000000000000000e-01) (42, 5, 5.00000000000000000000e-01) (42, 5, 5.00000000000000000000e-01) (42, 5, 5.00000000000000000000e-01) (42, 5, 5.00000000000000000000e-01) (42, 5, 5.00000000000000000000e-01) (42, 5, 5.00000000000000000000e-01) (42, 5, 5.00000000000000000000e-01) (42, 5, 5.00000000000000000000e-01) (42, 5, 5.00000000000000000000e-01) (42, 5, 5.00000000000000000000e-01) (42, 5, 5.00000000000000000000e-01) (42, 5, 5.00000000000000000000e-01) (42, 5, 5.00000000000000000000e-01) (42, 5, 5.00000000000000000000e-01) (42, 5, 5.00000000000000000000e-01) (42, 5, 5.00000000000000000000e-01) (42, 5, 5.00000000000000000000e-01) (42, 5, 5.00000000000000000000e-01) (42, 5, 5.00000000000000000000e-01) (42, 5, 5.00000000000000000000e-01) (42, 5, 5.00000000000000000000e-01) (42, 5, 5.00000000000000000000e-01) (42, 5, 5.00000000000000000000e-01) (42, 5, 5.00000000000000000000e-01) (42, 5, 5.00000000000000000000e-01) (42, 5, 5.00000000000000000000e-01) (42, 5, 5.00000000000000000000e-01) (42, 5, 5.00000000000000000000e-01) (42, 5, 5.00000000000000000000e-01) (42, 5, 5.00000000000000000000e-01) (42, 5, 5.00000000000000000000e-01) (42, 5, 5.00000000000000000000e-01) (42, 5, 5.00000000000000000000e-01) (42, 5, 5.00000000000000000000e-01) (42, 5, 5.00000000000000000000e-01) (42, 5, 5.00000000000000000000e-01) (42, 5, 5.00000000000000000000e-01) (42, 5, 5.00000000000000000000e-01) (42, 5, 5.00000000000000000000e-01) (42, 5, 5.00000000000000000000e-01) (42, 5, 5.00000000000000000000e-01) (42, 5, 5.00000000000000000000e-01) (0, 5, 0.00000000000000000000e+00) (53, 5, 5.00000000000000000000e-01) (53, 5, 5.00000000000000000000e-01) (53, 5, 5.00000000000000000000e-01) (53, 5, 5.00000000000000000000e-01) (53, 5, 5.00000000000000000000e-01) (53, 5, 5.00000000000000000000e-01) (53, 5, 5.00000000000000000000e-01) (53, 5, 5.00000000000000000000e-01) (53, 5, 5.00000000000000000000e-01) (53, 5, 5.00000000000000000000e-01) (53, 5, 5.00000000000000000000e-01) (53, 5, 5.00000000000000000000e-01) (53, 5, 5.00000000000000000000e-01) (53, 5, 5.00000000000000000000e-01) (53, 5, 5.00000000000000000000e-01) (53, 5, 5.00000000000000000000e-01) (53, 5, 5.00000000000000000000e-01) (53, 5, 5.00000000000000000000e-01) (53, 5, 5.00000000000000000000e-01) (53, 5, 5.00000000000000000000e-01) (53, 5, 5.00000000000000000000e-01) (53, 5, 5.00000000000000000000e-01) (53, 5, 5.00000000000000000000e-01) (53, 5, 5.00000000000000000000e-01) (53, 5, 5.00000000000000000000e-01) (53, 5, 5.00000000000000000000e-01) (53, 5, 5.00000000000000000000e-01) (53, 5, 5.00000000000000000000e-01) (53, 5, 5.00000000000000000000e-01) (53, 5, 5.00000000000000000000e-01) (53, 5, 5.00000000000000000000e-01) (53, 5, 5.00000000000000000000e-01) (53, 5, 5.00000000000000000000e-01) (53, 5, 5.00000000000000000000e-01) (53, 5, 5.00000000000000000000e-01) (53, 5, 5.00000000000000000000e-01) (53, 5, 5.00000000000000000000e-01) (53, 5, 5.00000000000000000000e-01) (53, 5, 5.00000000000000000000e-01) (53, 5, 5.00000000000000000000e-01) (53, 5, 5.00000000000000000000e-01) (0, 5, 0.00000000000000000000e+00) (42, 5, 5.00000000000000000000e-01) (42, 5, 5.00000000000000000000e-01) (42, 5, 5.00000000000000000000e-01) (42, 5, 5.00000000000000000000e-01) (42, 5, 5.00000000000000000000e-01) (42, 5, 5.00000000000000000000e-01) (42, 5, 5.00000000000000000000e-01) (42, 5, 5.00000000000000000000e-01) (42, 5, 5.00000000000000000000e-01) (42, 5, 5.00000000000000000000e-01) (42, 5, 5.00000000000000000000e-01) (42, 5, 5.00000000000000000000e-01) (42, 5, 5.00000000000000000000e-01) (42, 5, 5.00000000000000000000e-01) (42, 5, 5.00000000000000000000e-01) (42, 5, 5.00000000000000000000e-01) (42, 5, 5.00000000000000000000e-01) (42, 5, 5.00000000000000000000e-01) (42, 5, 5.00000000000000000000e-01) (42, 5, 5.00000000000000000000e-01) (42, 5, 5.00000000000000000000e-01) (42, 5, 5.00000000000000000000e-01) (42, 5, 5.00000000000000000000e-01) (42, 5, 5.00000000000000000000e-01) (0, 5, 0.00000000000000000000e+00) (25, 0, 5.00000000000000000000e-01) (0, 0, 0.00000000000000000000e+00) 
connections (connected_to_neuron, weight)=(0, 4.50895833969116210938e+00) (1, 5.30915832519531250000e+00) (2, -1.24261450767517089844e+00) (0, 9.43481683731079101562e-01) (1, 4.51232194900512695312e+00) (2, 3.20691943168640136719e+00) (0, 5.02441883087158203125e+00) (1, 5.83570766448974609375e+00) (2, -6.87627851963043212891e-01) (0, -2.02771568298339843750e+00) (1, 5.86369514465332031250e-01) (2, -1.47229015827178955078e+00) (0, 3.67849254608154296875e+00) (1, -1.33171582221984863281e+00) (2, -1.02085828781127929688e+00) (0, 1.24528551101684570312e+00) (1, 4.24224138259887695312e+00) (2, 3.77856588363647460938e+00) (0, 4.51888370513916015625e+00) (1, 5.46669387817382812500e+00) (2, -8.31660747528076171875e-01) (0, 5.92438220977783203125e+00) (1, -1.12433135509490966797e+00) (2, -5.11170148849487304688e-01) (0, 5.81010437011718750000e+00) (1, -1.11059546470642089844e+00) (2, 5.94033288955688476562e+00) (0, -1.75750313792377710342e-03) (1, -2.22360506653785705566e-01) (2, 2.46060669422149658203e-01) (0, 1.45016479492187500000e+00) (1, -9.27221775054931640625e-01) (2, -1.56962978839874267578e+00) (0, 5.76900100708007812500e+00) (1, 5.87372159957885742188e+00) (2, 1.62601637840270996094e+00) (0, 6.74240350723266601562e-01) (1, 4.25011968612670898438e+00) (2, -4.24550920724868774414e-01) (0, -5.47013618052005767822e-02) (1, 4.08162927627563476562e+00) (2, -1.52353382110595703125e+00) (0, -1.24435484409332275391e-01) (1, -1.63128149509429931641e+00) (2, -1.01521921157836914062e+00) (0, -2.05245971679687500000e+00) (1, 2.74184298515319824219e+00) (2, -1.05013692378997802734e+00) (0, 5.09183025360107421875e+00) (1, -1.36874961853027343750e+00) (2, 5.91864824295043945312e+00) (0, 2.02142730355262756348e-01) (1, 5.22216558456420898438e+00) (2, -9.58708107471466064453e-01) (0, 5.23108720779418945312e+00) (1, -1.35804235935211181641e+00) (2, -7.98745751380920410156e-01) (0, 5.68718194961547851562e+00) (1, -1.19733762741088867188e+00) (2, -7.60904848575592041016e-01) (0, 5.57484483718872070312e+00) (1, -8.67471218109130859375e-01) (2, 5.84409570693969726562e+00) (0, 3.06815457344055175781e+00) (1, 5.49986553192138671875e+00) (2, -1.22090697288513183594e+00) (0, 5.67276382446289062500e+00) (1, -7.79206871986389160156e-01) (2, 5.82913255691528320312e+00) (0, 5.42434835433959960938e+00) (1, -9.48589205741882324219e-01) (2, 5.48765993118286132812e+00) (0, -1.30624961853027343750e+00) (1, -1.35224699974060058594e+00) (2, -6.15251243114471435547e-01) (0, 5.49294948577880859375e+00) (1, -9.75765228271484375000e-01) (2, 5.93921756744384765625e+00) (0, 5.59188032150268554688e+00) (1, -2.42126032710075378418e-01) (2, -7.75365650653839111328e-01) (0, 1.63265633583068847656e+00) (1, 5.65540981292724609375e+00) (2, 5.47727727890014648438e+00) (0, 1.59167945384979248047e-01) (1, 3.24874520301818847656e-01) (2, -1.21415185928344726562e+00) (0, 1.40982198715209960938e+00) (1, 3.05539059638977050781e+00) (2, 1.18396985530853271484e+00) (0, 2.81085801124572753906e+00) (1, 4.62944841384887695312e+00) (2, 5.10894870758056640625e+00) (0, 2.35126209259033203125e+00) (1, -1.69620561599731445312e+00) (2, -1.60160624980926513672e+00) (3, -3.88773590326309204102e-01) (4, 2.32465362548828125000e+00) (5, 1.60698473453521728516e+00) (6, 1.87742316722869873047e+00) (7, -9.51129853725433349609e-01) (8, 2.41074514389038085938e+00) (9, -1.21919766068458557129e-01) (10, -1.38863348960876464844e+00) (11, -4.67325568199157714844e-01) (12, 3.42670917510986328125e+00) (13, 6.52898550033569335938e-02) (14, 2.14175868034362792969e+00) (15, 1.59194624423980712891e+00) (16, 2.83150672912597656250e-01) (17, 1.95822346210479736328e+00) (18, 2.24812030792236328125e+00) (19, 2.12157219648361206055e-01) (20, 2.11894154548645019531e+00) (21, -1.67379403114318847656e+00) (22, -1.61617767810821533203e+00) (23, 2.14516329765319824219e+00) (24, 1.79909443855285644531e+00) (25, 1.33435904979705810547e+00) (26, -2.72804945707321166992e-01) (27, 2.85063529014587402344e+00) (28, 1.77118563652038574219e+00) (29, -8.68744626641273498535e-02) (30, 3.56246799230575561523e-01) (31, 3.30321383476257324219e+00) (32, 2.28805518150329589844e+00) (33, 2.57220387458801269531e+00) (34, -1.21083669364452362061e-01) (35, 1.54634177684783935547e+00) (3, 2.94312405586242675781e+00) (4, -3.69611382484436035156e-01) (5, -2.25906163454055786133e-01) (6, 4.65228271484375000000e+00) (7, 2.60756516456604003906e+00) (8, -6.62295460700988769531e-01) (9, 6.15547060966491699219e-01) (10, 3.63569855690002441406e+00) (11, -8.99572312831878662109e-01) (12, 4.26783132553100585938e+00) (13, 3.79865217208862304688e+00) (14, -5.30370175838470458984e-01) (15, 2.79232811927795410156e+00) (16, 3.12133145332336425781e+00) (17, 4.87989187240600585938e+00) (18, 3.38045024871826171875e+00) (19, -9.20636653900146484375e-01) (20, 2.97330141067504882812e+00) (21, 3.40648698806762695312e+00) (22, 1.88196837902069091797e+00) (23, -6.77832305431365966797e-01) (24, 2.62564301490783691406e+00) (25, -6.37070834636688232422e-01) (26, -2.26330369710922241211e-01) (27, 4.67431211471557617188e+00) (28, -5.70625126361846923828e-01) (29, 3.80658030509948730469e+00) (30, -1.37401127815246582031e+00) (31, 4.25492238998413085938e+00) (32, -2.48023703694343566895e-01) (33, -1.08709704875946044922e+00) (34, 4.44496250152587890625e+00) (35, -9.33493614196777343750e-01) (3, -1.48430252075195312500e+00) (4, -4.90598976612091064453e-01) (5, -3.97836983203887939453e-01) (6, 5.84455156326293945312e+00) (7, 2.94566065073013305664e-01) (8, -6.79805219173431396484e-01) (9, -1.10261178016662597656e+00) (10, 3.90997791290283203125e+00) (11, 4.47687911987304687500e+00) (12, 5.75679683685302734375e+00) (13, 6.00034892559051513672e-01) (14, -1.06003940105438232422e+00) (15, -6.08622789382934570312e-01) (16, -1.10386514663696289062e+00) (17, 5.71387195587158203125e+00) (18, 3.50845599174499511719e+00) (19, 4.43951654434204101562e+00) (20, -4.64753329753875732422e-01) (21, 2.80454683303833007812e+00) (22, 2.43942022323608398438e+00) (23, 4.75822782516479492188e+00) (24, -1.27452242374420166016e+00) (25, 5.24506330490112304688e+00) (26, 5.02768993377685546875e+00) (27, 5.64416837692260742188e+00) (28, 5.06261014938354492188e+00) (29, -1.17979538440704345703e+00) (30, -9.39072191715240478516e-01) (31, -1.02396145462989807129e-01) (32, -3.86344313621520996094e-01) (33, -8.51207137107849121094e-01) (34, 2.56314611434936523438e+00) (35, -9.38627302646636962891e-01) (3, -8.60794842243194580078e-01) (4, -9.08384382724761962891e-01) (5, -6.58455073833465576172e-01) (6, 5.67305469512939453125e+00) (7, -1.00629007816314697266e+00) (8, -1.62720036506652832031e+00) (9, -8.33083510398864746094e-01) (10, -9.38553512096405029297e-01) (11, -8.63892555236816406250e-01) (12, 4.91239356994628906250e+00) (13, -1.36953151226043701172e+00) (14, -7.84010589122772216797e-01) (15, -3.37187618017196655273e-01) (16, -8.01143944263458251953e-01) (17, 5.47868728637695312500e+00) (18, 5.20966911315917968750e+00) (19, -1.69107472896575927734e+00) (20, -5.49880206584930419922e-01) (21, 1.34285783767700195312e+00) (22, -9.72758591175079345703e-01) (23, -1.24025571346282958984e+00) (24, -5.71669161319732666016e-01) (25, -1.64031982421875000000e+00) (26, -2.05464577674865722656e+00) (27, 5.59825849533081054688e+00) (28, -1.67724263668060302734e+00) (29, -1.53636527061462402344e+00) (30, -1.04222178459167480469e+00) (31, 4.57436275482177734375e+00) (32, -1.66954100131988525391e+00) (33, -1.28502321243286132812e+00) (34, 1.29463886842131614685e-02) (35, -1.30575799942016601562e+00) (3, -6.36842191219329833984e-01) (4, -8.32560837268829345703e-01) (5, -1.32082843780517578125e+00) (6, 5.55085778236389160156e-01) (7, -7.53386497497558593750e-01) (8, -1.28661930561065673828e+00) (9, -1.34541106224060058594e+00) (10, 3.96383619308471679688e+00) (11, -1.12771797180175781250e+00) (12, 4.86545991897583007812e+00) (13, -8.60799729824066162109e-01) (14, -1.23780274391174316406e+00) (15, -2.57108390331268310547e-01) (16, -5.05579650402069091797e-01) (17, 4.90048837661743164062e+00) (18, 1.00242602825164794922e+00) (19, -1.75889134407043457031e+00) (20, -9.02823626995086669922e-01) (21, -1.26488649845123291016e+00) (22, -8.73929202556610107422e-01) (23, -7.94675230979919433594e-01) (24, -5.52241981029510498047e-01) (25, -1.72541689872741699219e+00) (26, 2.86975479125976562500e+00) (27, 5.70223522186279296875e+00) (28, -1.74167120456695556641e+00) (29, 1.24513649940490722656e+00) (30, -1.27269494533538818359e+00) (31, 3.88364481925964355469e+00) (32, -9.23170566558837890625e-01) (33, -3.86600941419601440430e-01) (34, 1.28164732456207275391e+00) (35, -1.39542305469512939453e+00) (3, -6.76383495330810546875e-01) (4, -7.07147479057312011719e-01) (5, 1.36674499511718750000e+00) (6, 1.35167431831359863281e+00) (7, 3.22679162025451660156e+00) (8, -6.43641889095306396484e-01) (9, -4.50249791145324707031e-01) (10, 3.50707960128784179688e+00) (11, 7.01404273509979248047e-01) (12, 4.84925508499145507812e+00) (13, 2.80761265754699707031e+00) (14, 1.22847306728363037109e+00) (15, -3.85412007570266723633e-01) (16, -8.47284257411956787109e-01) (17, 5.19938707351684570312e+00) (18, -6.56985580921173095703e-01) (19, 7.06205487251281738281e-01) (20, -1.20082676410675048828e+00) (21, 1.33644735813140869141e+00) (22, 1.04597103595733642578e+00) (23, 5.06604492664337158203e-01) (24, -6.81024610996246337891e-01) (25, 6.82400286197662353516e-01) (26, -1.74517288804054260254e-01) (27, 5.58150720596313476562e+00) (28, 8.02070856094360351562e-01) (29, 2.19193711876869201660e-01) (30, 1.43827116489410400391e+00) (31, 4.99921846389770507812e+00) (32, -6.07110142707824707031e-01) (33, -1.02121436595916748047e+00) (34, 3.53779983520507812500e+00) (35, 4.20636981725692749023e-01) (3, 3.09332776069641113281e+00) (4, 9.66124951839447021484e-01) (5, 3.58316206932067871094e+00) (6, 3.47357130050659179688e+00) (7, 9.56315100193023681641e-01) (8, 1.02684438228607177734e+00) (9, 3.23288202285766601562e+00) (10, 5.34042835235595703125e-01) (11, 2.71617472171783447266e-01) (12, 3.20854854583740234375e+00) (13, -2.08234682679176330566e-01) (14, 2.50573801994323730469e+00) (15, 3.20668888092041015625e+00) (16, 4.83475875854492187500e+00) (17, 2.08874988555908203125e+00) (18, 1.33004355430603027344e+00) (19, 5.95783367753028869629e-02) (20, 4.18749475479125976562e+00) (21, 3.20288017392158508301e-02) (22, -1.19211874902248382568e-01) (23, -2.56679743528366088867e-01) (24, 4.32277774810791015625e+00) (25, 2.44181051850318908691e-01) (26, 8.98689746856689453125e-01) (27, 2.76013851165771484375e+00) (28, 5.13304173946380615234e-01) (29, 2.70214581489562988281e+00) (30, 1.28048062324523925781e+00) (31, 3.04006171226501464844e+00) (32, 3.86097669601440429688e+00) (33, 8.10347318649291992188e-01) (34, 6.51824176311492919922e-01) (35, 7.75887608528137207031e-01) (3, -8.27057719230651855469e-01) (4, 2.54930591583251953125e+00) (5, -1.18692290782928466797e+00) (6, -4.79907631874084472656e-01) (7, 4.98648285865783691406e-01) (8, -7.06525921821594238281e-01) (9, -1.03372573852539062500e+00) (10, 3.93505716323852539062e+00) (11, 5.39202833175659179688e+00) (12, 5.19411993026733398438e+00) (13, 1.27784204483032226562e+00) (14, -1.07248067855834960938e+00) (15, -1.07523536682128906250e+00) (16, -4.33422207832336425781e-01) (17, 5.37190437316894531250e+00) (18, 2.84123849868774414062e+00) (19, 5.81156349182128906250e+00) (20, -1.23438298702239990234e+00) (21, 3.46209859848022460938e+00) (22, 3.47148799896240234375e+00) (23, 5.34916496276855468750e+00) (24, -6.78541660308837890625e-01) (25, 6.15787506103515625000e+00) (26, 5.92298793792724609375e+00) (27, 5.87864398956298828125e+00) (28, 5.67844438552856445312e+00) (29, 5.13066816329956054688e+00) (30, -1.74875783920288085938e+00) (31, -6.60138964653015136719e-01) (32, -1.12723612785339355469e+00) (33, -7.10683047771453857422e-01) (34, 1.71149182319641113281e+00) (35, 5.65752935409545898438e+00) (3, -8.01325857639312744141e-01) (4, -9.25372123718261718750e-01) (5, -1.14628827571868896484e+00) (6, -1.02843630313873291016e+00) (7, -2.83825516700744628906e-01) (8, 5.31392860412597656250e+00) (9, -1.08643829822540283203e+00) (10, 3.78388023376464843750e+00) (11, 5.61143636703491210938e+00) (12, 5.46417284011840820312e+00) (13, -1.63605475425720214844e+00) (14, -3.80405455827713012695e-01) (15, -1.10927045345306396484e+00) (16, -1.15325558185577392578e+00) (17, 5.86280727386474609375e+00) (18, 3.63997054100036621094e+00) (19, 5.61075401306152343750e+00) (20, -1.02642881870269775391e+00) (21, 2.99604833126068115234e-01) (22, 3.36605811119079589844e+00) (23, 6.00311708450317382812e+00) (24, -1.21845054626464843750e+00) (25, 6.09741735458374023438e+00) (26, 5.48108196258544921875e+00) (27, -1.33063912391662597656e+00) (28, 5.40995931625366210938e+00) (29, -1.07300245761871337891e+00) (30, -1.27947795391082763672e+00) (31, -9.23590719699859619141e-01) (32, -4.10343050956726074219e-01) (33, 6.04322242736816406250e+00) (34, -4.18477267026901245117e-01) (35, 5.88399839401245117188e+00) (3, 6.61253809928894042969e-01) (4, -8.89802634716033935547e-01) (5, 1.98865270614624023438e+00) (6, 5.74280929565429687500e+00) (7, 2.65626263618469238281e+00) (8, -5.66216588020324707031e-01) (9, 1.61536931991577148438e-01) (10, 3.01307272911071777344e+00) (11, 4.53745983541011810303e-02) (12, 5.29862403869628906250e+00) (13, 2.57565832138061523438e+00) (14, 8.23591798543930053711e-02) (15, 9.63730514049530029297e-01) (16, 1.99185758829116821289e-01) (17, 4.94594573974609375000e+00) (18, 2.21723961830139160156e+00) (19, -1.02445900440216064453e+00) (20, 8.48842263221740722656e-01) (21, 2.62126660346984863281e+00) (22, 2.81041078269481658936e-02) (23, 1.81369930505752563477e-01) (24, -4.10133004188537597656e-01) (25, 2.64783278107643127441e-02) (26, -9.25960987806320190430e-02) (27, 4.88615083694458007812e+00) (28, 3.10699492692947387695e-01) (29, 1.67140555381774902344e+00) (30, -7.39582419395446777344e-01) (31, 5.08460378646850585938e+00) (32, -4.16860222816467285156e-01) (33, -1.72736585140228271484e-01) (34, 4.86603641510009765625e+00) (35, -4.23489689826965332031e-01) (3, 1.31510889530181884766e+00) (4, 1.51135611534118652344e+00) (5, 1.40309667587280273438e+00) (6, 3.76194286346435546875e+00) (7, -2.26795339584350585938e+00) (8, 2.70734524726867675781e+00) (9, 1.57566785812377929688e+00) (10, -2.11588621139526367188e+00) (11, 2.49327167868614196777e-01) (12, 4.22977304458618164062e+00) (13, 1.55987799167633056641e-01) (14, 1.29992794990539550781e+00) (15, 2.86112129688262939453e-02) (16, 1.11001312732696533203e+00) (17, 3.37462639808654785156e+00) (18, 1.83733022212982177734e+00) (19, -5.40038406848907470703e-01) (20, 1.37212514877319335938e+00) (21, -1.69690930843353271484e+00) (22, -1.86477756500244140625e+00) (23, 5.43095707893371582031e-01) (24, 1.57583951950073242188e+00) (25, 1.56007602810859680176e-01) (26, -1.38132832944393157959e-02) (27, 4.78618144989013671875e+00) (28, 1.29074335098266601562e-01) (29, -5.50761222839355468750e-01) (30, 2.40447831153869628906e+00) (31, 4.47057819366455078125e+00) (32, 1.01699686050415039062e+00) (33, 2.13704705238342285156e+00) (34, 1.48969694972038269043e-01) (35, 4.16142344474792480469e-01) (3, 4.69217777252197265625e+00) (4, -4.86444860696792602539e-01) (5, 2.17095446586608886719e+00) (6, 5.47623968124389648438e+00) (7, 6.43785715103149414062e-01) (8, -6.77037715911865234375e-01) (9, 4.22037696838378906250e+00) (10, 1.79052960872650146484e+00) (11, -4.57363069057464599609e-01) (12, 5.52107238769531250000e+00) (13, 3.86135101318359375000e+00) (14, 2.25558233261108398438e+00) (15, 3.84049034118652343750e+00) (16, 3.68396067619323730469e+00) (17, 5.07591390609741210938e+00) (18, 3.69839096069335937500e+00) (19, -5.08907318115234375000e-01) (20, 3.13911461830139160156e+00) (21, 1.15993058681488037109e+00) (22, 3.24912905693054199219e+00) (23, -2.03737005591392517090e-01) (24, 4.19808715581893920898e-01) (25, -9.66561853885650634766e-01) (26, -2.88713186979293823242e-01) (27, 5.13956022262573242188e+00) (28, -7.00465142726898193359e-01) (29, 2.49691224098205566406e+00) (30, -8.27881455421447753906e-01) (31, 5.75096797943115234375e+00) (32, 3.07990527153015136719e+00) (33, -1.17875087261199951172e+00) (34, 4.56411504745483398438e+00) (35, -4.97977554798126220703e-01) (3, -1.22004926204681396484e+00) (4, 5.78484630584716796875e+00) (5, -4.19216811656951904297e-01) (6, -1.28030478954315185547e+00) (7, 7.68112719058990478516e-01) (8, 5.38607788085937500000e+00) (9, -7.64912784099578857422e-01) (10, -9.34035032987594604492e-02) (11, 5.45100641250610351562e+00) (12, -1.24868571758270263672e+00) (13, -9.78943049907684326172e-01) (14, 5.95293521881103515625e+00) (15, -1.43747973442077636719e+00) (16, -1.13444650173187255859e+00) (17, -1.02129423618316650391e+00) (18, 4.41183137893676757812e+00) (19, -3.14906239509582519531e-01) (20, -1.45981466770172119141e+00) (21, 5.19288003444671630859e-01) (22, 1.10910892486572265625e+00) (23, 6.07401323318481445312e+00) (24, -9.44619297981262207031e-01) (25, 5.95599842071533203125e+00) (26, 5.54512262344360351562e+00) (27, -1.61083090305328369141e+00) (28, 5.16209268569946289062e+00) (29, -5.72176516056060791016e-01) (30, -3.53564620018005371094e-01) (31, -3.15945357084274291992e-01) (32, 5.36638450622558593750e+00) (33, 5.77193403244018554688e+00) (34, -6.52229189872741699219e-01) (35, 6.13801717758178710938e+00) (3, 4.17580175399780273438e+00) (4, -3.53134483098983764648e-01) (5, 3.31323480606079101562e+00) (6, 4.96990108489990234375e+00) (7, 3.12190562486648559570e-01) (8, -5.36539107561111450195e-02) (9, 3.32772898674011230469e+00) (10, 7.95805394649505615234e-01) (11, -7.20237791538238525391e-01) (12, 3.06980633735656738281e+00) (13, 1.90696871280670166016e+00) (14, 3.55793809890747070312e+00) (15, 5.50276851654052734375e+00) (16, 5.54078435897827148438e+00) (17, 2.36554074287414550781e+00) (18, 2.82144498825073242188e+00) (19, -8.86103391647338867188e-01) (20, 2.43968677520751953125e+00) (21, -8.58205676078796386719e-01) (22, 1.12823414802551269531e+00) (23, -7.85495579242706298828e-01) (24, 1.33590435981750488281e+00) (25, -8.32166254520416259766e-01) (26, -1.11950421333312988281e+00) (27, 4.48643302917480468750e+00) (28, -1.23642444610595703125e+00) (29, 2.18120932579040527344e+00) (30, -5.46816110610961914062e-01) (31, 3.96349048614501953125e+00) (32, 2.46091485023498535156e+00) (33, -6.39164626598358154297e-01) (34, 3.67152214050292968750e+00) (35, -5.15061080455780029297e-01) (3, -6.89792573451995849609e-01) (4, 5.87095403671264648438e+00) (5, -1.08269953727722167969e+00) (6, 4.20055961608886718750e+00) (7, 2.28563451766967773438e+00) (8, 5.38357210159301757812e+00) (9, -8.07984530925750732422e-01) (10, 3.12117743492126464844e+00) (11, 6.03372383117675781250e+00) (12, -1.61976292729377746582e-01) (13, -2.66369879245758056641e-01) (14, -8.50862205028533935547e-01) (15, -1.14823639392852783203e+00) (16, -1.50133454799652099609e+00) (17, -1.09995007514953613281e+00) (18, 3.28607344627380371094e+00) (19, 5.45491456985473632812e+00) (20, -1.86423945426940917969e+00) (21, 1.88458502292633056641e+00) (22, 1.98010969161987304688e+00) (23, 6.03764820098876953125e+00) (24, -1.04162335395812988281e+00) (25, 5.92299842834472656250e+00) (26, 5.72061729431152343750e+00) (27, -4.86197471618652343750e-01) (28, 5.43558359146118164062e+00) (29, -1.85718268156051635742e-01) (30, -7.82073557376861572266e-01) (31, -1.18165418505668640137e-01) (32, -6.81327462196350097656e-01) (33, 5.26075172424316406250e+00) (34, -8.16098213195800781250e-01) (35, 5.71253013610839843750e+00) (3, 4.33762502670288085938e+00) (4, -6.46966636180877685547e-01) (5, 5.08464956283569335938e+00) (6, 6.10575246810913085938e+00) (7, 5.97521543502807617188e-01) (8, -1.05928945541381835938e+00) (9, 5.01797771453857421875e+00) (10, 8.92158329486846923828e-01) (11, -5.62333405017852783203e-01) (12, 5.66236829757690429688e+00) (13, 4.61530113220214843750e+00) (14, 5.05474185943603515625e+00) (15, -6.90748333930969238281e-01) (16, 5.04426479339599609375e+00) (17, 5.44465827941894531250e+00) (18, 5.38809061050415039062e+00) (19, -1.48896527290344238281e+00) (20, 4.90953016281127929688e+00) (21, 1.92015731334686279297e+00) (22, 2.22813919186592102051e-01) (23, -1.17370641231536865234e+00) (24, -9.33764502406120300293e-02) (25, -1.84980317950248718262e-01) (26, -9.23104524612426757812e-01) (27, 5.51015949249267578125e+00) (28, -7.31785655021667480469e-01) (29, 5.32240962982177734375e+00) (30, -8.16616356372833251953e-01) (31, 5.08918619155883789062e+00) (32, -1.03235638141632080078e+00) (33, -1.36646997928619384766e+00) (34, 5.25306510925292968750e+00) (35, -7.11792647838592529297e-01) (3, -5.08466124534606933594e-01) (4, -1.46458578109741210938e+00) (5, -1.42119705677032470703e+00) (6, 6.30066585540771484375e+00) (7, -1.95425629615783691406e+00) (8, -9.61097836494445800781e-01) (9, -8.85412037372589111328e-01) (10, -7.59312152862548828125e-01) (11, -1.32644665241241455078e+00) (12, 5.37957048416137695312e+00) (13, -6.22185051441192626953e-01) (14, -1.12700009346008300781e+00) (15, -3.31444501876831054688e-01) (16, -1.54124066233634948730e-01) (17, 5.88122034072875976562e+00) (18, 1.09032773971557617188e+00) (19, -1.08759522438049316406e+00) (20, -1.00946165621280670166e-01) (21, -8.29125642776489257812e-01) (22, 2.89337486028671264648e-01) (23, -1.22114384174346923828e+00) (24, -2.71391183137893676758e-01) (25, -1.30487608909606933594e+00) (26, -1.24888837337493896484e+00) (27, 5.44574546813964843750e+00) (28, -1.24486792087554931641e+00) (29, -1.52568995952606201172e+00) (30, 9.02246892452239990234e-01) (31, 4.33530950546264648438e+00) (32, -7.52270877361297607422e-01) (33, -1.13642072677612304688e+00) (34, 3.36922097206115722656e+00) (35, -8.21315407752990722656e-01) (3, 4.58407926559448242188e+00) (4, 2.95864319801330566406e+00) (5, 3.25176119804382324219e+00) (6, 2.96020197868347167969e+00) (7, -2.75106988847255706787e-02) (8, 1.24968492984771728516e+00) (9, 3.53113055229187011719e+00) (10, -3.78560453653335571289e-01) (11, 6.48913323879241943359e-01) (12, 4.62110424041748046875e+00) (13, -8.81877422332763671875e-01) (14, 4.06103897094726562500e+00) (15, 5.23896598815917968750e+00) (16, 6.24697732925415039062e+00) (17, 1.10016167163848876953e+00) (18, 4.71320629119873046875e+00) (19, 6.63210928440093994141e-01) (20, 6.00840234756469726562e+00) (21, -7.05167412757873535156e-01) (22, 1.11028683185577392578e+00) (23, 1.17611563205718994141e+00) (24, 3.28167080879211425781e-01) (25, 1.25958955287933349609e+00) (26, 7.04420626163482666016e-01) (27, 4.43862676620483398438e+00) (28, 1.08844244480133056641e+00) (29, 1.57858562469482421875e+00) (30, 3.81925106048583984375e+00) (31, 4.30094242095947265625e+00) (32, 4.16543579101562500000e+00) (33, 1.06958985328674316406e+00) (34, 4.43471997976303100586e-01) (35, 4.20829266309738159180e-01) (3, -1.02163338661193847656e+00) (4, 7.83597707748413085938e-01) (5, 5.68334043025970458984e-01) (6, -9.93163287639617919922e-01) (7, -9.57085415720939636230e-02) (8, 6.59959793090820312500e-01) (9, -5.14823496341705322266e-01) (10, -7.61518403887748718262e-02) (11, 3.73701415956020355225e-02) (12, 4.96353816986083984375e+00) (13, -5.69414019584655761719e-01) (14, 3.14356148242950439453e-01) (15, -4.60371553897857666016e-01) (16, -1.45570409297943115234e+00) (17, 4.68713235855102539062e+00) (18, 4.13981246948242187500e+00) (19, -2.96979099512100219727e-02) (20, -9.69696044921875000000e-01) (21, 3.14720831811428070068e-02) (22, -8.47631506621837615967e-03) (23, 1.38965040445327758789e-01) (24, -5.15744686126708984375e-01) (25, 2.25051105022430419922e-01) (26, -8.51480439305305480957e-02) (27, 4.44678640365600585938e+00) (28, -3.98289948701858520508e-01) (29, 5.73068112134933471680e-02) (30, -3.99916291236877441406e-01) (31, 6.22746610641479492188e+00) (32, -1.79689913988113403320e-01) (33, 3.57498154044151306152e-02) (34, -1.01992976665496826172e+00) (35, 1.90382033586502075195e-01) (3, 4.55032920837402343750e+00) (4, 9.97509360313415527344e-01) (5, 5.10009956359863281250e+00) (6, 3.47033476829528808594e+00) (7, 1.08234500885009765625e+00) (8, 7.56763219833374023438e-01) (9, 4.72521877288818359375e+00) (10, 1.44314980506896972656e+00) (11, 1.21078681945800781250e+00) (12, 3.92341589927673339844e+00) (13, 3.90313220024108886719e+00) (14, 4.56508493423461914062e+00) (15, 4.58874082565307617188e+00) (16, 4.13720846176147460938e+00) (17, 3.87323784828186035156e+00) (18, 3.23725581169128417969e+00) (19, 2.37546890974044799805e-01) (20, 4.52721881866455078125e+00) (21, 2.15542256832122802734e-01) (22, 1.68683719635009765625e+00) (23, 5.34399449825286865234e-01) (24, 7.09366440773010253906e-01) (25, 6.29290223121643066406e-01) (26, 2.66269892454147338867e-01) (27, 3.61430811882019042969e+00) (28, 5.66356182098388671875e-01) (29, 4.63893032073974609375e+00) (30, 8.43126058578491210938e-01) (31, 2.78425407409667968750e+00) (32, 4.19106149673461914062e+00) (33, 6.09168350696563720703e-01) (34, 4.00315761566162109375e+00) (35, 9.02724921703338623047e-01) (3, 3.40135425329208374023e-01) (4, -4.76810425519943237305e-01) (5, -7.57444024085998535156e-01) (6, 3.23942804336547851562e+00) (7, 1.90712344646453857422e+00) (8, 3.89191567897796630859e-01) (9, 1.48216128349304199219e-01) (10, 1.73996388912200927734e+00) (11, 5.33334970474243164062e-01) (12, 2.51573419570922851562e+00) (13, 5.94214105606079101562e+00) (14, -3.67427229881286621094e-01) (15, 5.45143663883209228516e-01) (16, 1.05057013034820556641e+00) (17, 4.17338800430297851562e+00) (18, -5.16852498054504394531e-01) (19, 7.64934778213500976562e-01) (20, -4.77576941251754760742e-01) (21, 3.51806044578552246094e+00) (22, 1.94797122478485107422e+00) (23, 1.68713301420211791992e-01) (24, -1.00144517421722412109e+00) (25, 1.43222463130950927734e+00) (26, 2.21660923957824707031e+00) (27, 4.72362518310546875000e+00) (28, 2.22390621900558471680e-01) (29, 2.57232990115880966187e-02) (30, 5.16986727714538574219e-01) (31, 2.24463772773742675781e+00) (32, -1.21568632125854492188e+00) (33, 6.41187250614166259766e-01) (34, 6.10358810424804687500e+00) (35, 9.85903203487396240234e-01) (3, 5.35103178024291992188e+00) (4, -1.05637013912200927734e+00) (5, 5.46681261062622070312e+00) (6, 5.08368968963623046875e+00) (7, 5.11930823326110839844e-01) (8, -5.30569970607757568359e-01) (9, 4.93819665908813476562e+00) (10, 6.06556713581085205078e-01) (11, -1.38641810417175292969e+00) (12, 5.58790302276611328125e+00) (13, 5.03352212905883789062e+00) (14, 5.46952676773071289062e+00) (15, 1.49696004390716552734e+00) (16, 6.33474922180175781250e+00) (17, 3.13998293876647949219e+00) (18, 1.06194496154785156250e+00) (19, -1.17307329177856445312e+00) (20, 2.64422583580017089844e+00) (21, 1.56470823287963867188e+00) (22, 1.16162633895874023438e+00) (23, -6.89709722995758056641e-01) (24, -1.06129065155982971191e-01) (25, -5.80296993255615234375e-01) (26, -9.85480904579162597656e-01) (27, 5.63707447052001953125e+00) (28, -1.21915292739868164062e+00) (29, 1.97666370868682861328e+00) (30, -8.00064146518707275391e-01) (31, 5.19784355163574218750e+00) (32, 1.90560114383697509766e+00) (33, -7.45966792106628417969e-01) (34, 5.30759429931640625000e+00) (35, -9.70893681049346923828e-01) (3, 3.58002781867980957031e+00) (4, 2.70794063806533813477e-01) (5, 2.36011385917663574219e+00) (6, 3.30405187606811523438e+00) (7, 2.47078561782836914062e+00) (8, -8.12851965427398681641e-01) (9, 3.41542458534240722656e+00) (10, 2.31955242156982421875e+00) (11, 1.28959619998931884766e+00) (12, 4.78469818830490112305e-01) (13, 4.43532085418701171875e+00) (14, 1.78316235542297363281e+00) (15, 2.16653442382812500000e+00) (16, 2.10336160659790039062e+00) (17, 3.91017031669616699219e+00) (18, 6.09252929687500000000e-01) (19, 5.77376969158649444580e-02) (20, 2.29091715812683105469e+00) (21, 2.22455477714538574219e+00) (22, 3.29748749732971191406e+00) (23, -5.57203531265258789062e-01) (24, 1.59376525878906250000e+00) (25, -1.49258241057395935059e-01) (26, 5.05356967449188232422e-01) (27, 1.17212986946105957031e+00) (28, -5.54730072617530822754e-02) (29, 1.51168966293334960938e+00) (30, -6.03139579296112060547e-01) (31, 1.11723232269287109375e+00) (32, 2.37712073326110839844e+00) (33, 1.11531865596771240234e+00) (34, 4.46353054046630859375e+00) (35, -4.86332893371582031250e-01) (3, 5.14922332763671875000e+00) (4, 1.54474401473999023438e+00) (5, 5.15789222717285156250e+00) (6, 4.12700700759887695312e+00) (7, 1.40340581536293029785e-01) (8, 1.67309951782226562500e+00) (9, 5.18398523330688476562e+00) (10, 3.44925117492675781250e+00) (11, 1.52961230278015136719e+00) (12, 2.90035390853881835938e+00) (13, 8.84750783443450927734e-01) (14, 1.06569051742553710938e+00) (15, 2.93930530548095703125e+00) (16, 5.37063694000244140625e+00) (17, 2.35470986366271972656e+00) (18, 3.87470912933349609375e+00) (19, 6.34753644466400146484e-01) (20, 5.60800743103027343750e+00) (21, -2.21074104309082031250e-01) (22, -4.85252052545547485352e-01) (23, 1.52179205417633056641e+00) (24, 2.10936021804809570312e+00) (25, 7.85916447639465332031e-01) (26, 1.25074958801269531250e+00) (27, 3.00275588035583496094e+00) (28, 7.86056876182556152344e-01) (29, 5.30617141723632812500e+00) (30, 8.76291275024414062500e-01) (31, 3.49235343933105468750e+00) (32, 2.54838252067565917969e+00) (33, 1.17996072769165039062e+00) (34, 2.50569391250610351562e+00) (35, 1.05320513248443603516e+00) (3, 4.02303981781005859375e+00) (4, -2.44344095699489116669e-03) (5, 4.41681861877441406250e+00) (6, 5.18804836273193359375e+00) (7, -2.02174782752990722656e+00) (8, -2.27858334779739379883e-01) (9, 4.21243238449096679688e+00) (10, -9.10053551197052001953e-01) (11, -3.57234537601470947266e-01) (12, 5.26032209396362304688e+00) (13, 6.99993669986724853516e-01) (14, 4.40025997161865234375e+00) (15, 5.68665933609008789062e+00) (16, 5.81190824508666992188e+00) (17, 5.06807708740234375000e+00) (18, 5.21689271926879882812e+00) (19, -4.59554284811019897461e-01) (20, 5.91751241683959960938e+00) (21, -1.83453011512756347656e+00) (22, -1.49627459049224853516e+00) (23, -1.78725093603134155273e-01) (24, -4.21137422323226928711e-01) (25, 3.60253334045410156250e-01) (26, 1.86441000550985336304e-02) (27, 4.62637615203857421875e+00) (28, -5.97129404544830322266e-01) (29, 8.78224313259124755859e-01) (30, 2.37504243850708007812e+00) (31, 5.01661968231201171875e+00) (32, 2.72883903235197067261e-02) (33, -1.98335886001586914062e-01) (34, 3.13774943351745605469e+00) (35, -2.23950177431106567383e-01) (3, 1.67892646789550781250e+00) (4, -5.29693722724914550781e-01) (5, -3.30265134572982788086e-01) (6, 3.77698993682861328125e+00) (7, 2.03669714927673339844e+00) (8, -3.49875576794147491455e-02) (9, 4.83754687011241912842e-02) (10, 2.56362605094909667969e+00) (11, 6.29056632518768310547e-01) (12, 4.63061952590942382812e+00) (13, 2.25449323654174804688e+00) (14, -2.81836986541748046875e-01) (15, 3.97221088409423828125e+00) (16, 3.93566823005676269531e+00) (17, 3.23006558418273925781e+00) (18, 2.85311079025268554688e+00) (19, -8.64783942699432373047e-01) (20, 2.02480387687683105469e+00) (21, 1.56139850616455078125e+00) (22, 3.22048246860504150391e-01) (23, -6.17408156394958496094e-01) (24, 2.58578205108642578125e+00) (25, -9.47475612163543701172e-01) (26, -1.20313119888305664062e+00) (27, 5.06125307083129882812e+00) (28, -1.09082973003387451172e+00) (29, 2.72345691919326782227e-01) (30, 3.86265456676483154297e-01) (31, 3.20076251029968261719e+00) (32, 7.45655298233032226562e-01) (33, -1.01514592766761779785e-01) (34, 1.56227827072143554688e+00) (35, -1.67938739061355590820e-01) (3, 1.00618052482604980469e+00) (4, 2.21169495582580566406e+00) (5, 3.29724383354187011719e+00) (6, 2.66185331344604492188e+00) (7, -1.03499539196491241455e-01) (8, 1.22014343738555908203e+00) (9, 3.98602175712585449219e+00) (10, -3.99621695280075073242e-01) (11, 2.48415756225585937500e+00) (12, 3.07803153991699218750e+00) (13, -1.09836077690124511719e+00) (14, 4.49592781066894531250e+00) (15, 1.88531613349914550781e+00) (16, 1.30297279357910156250e+00) (17, 2.08678030967712402344e+00) (18, 1.76933121681213378906e+00) (19, 3.94143176078796386719e+00) (20, 3.14751923084259033203e-01) (21, -1.54612672328948974609e+00) (22, 2.88009680807590484619e-02) (23, 2.61404156684875488281e+00) (24, 6.81368291378021240234e-01) (25, 1.65790593624114990234e+00) (26, 1.69930696487426757812e+00) (27, 3.73874855041503906250e+00) (28, 2.29386544227600097656e+00) (29, 3.13217329978942871094e+00) (30, 1.84880852699279785156e+00) (31, 1.30812561511993408203e+00) (32, 3.62645053863525390625e+00) (33, 1.15697109699249267578e+00) (34, 4.88395839929580688477e-01) (35, 2.80814385414123535156e+00) (3, 3.24460673332214355469e+00) (4, -3.65550398826599121094e-01) (5, 1.55959744006395339966e-02) (6, 4.70106315612792968750e+00) (7, -6.25784039497375488281e-01) (8, -1.12488687038421630859e+00) (9, -2.53714490681886672974e-02) (10, 8.64853858947753906250e-01) (11, -6.04086041450500488281e-01) (12, 5.85064363479614257812e+00) (13, 1.66765594482421875000e+00) (14, -3.58683913946151733398e-01) (15, 1.44011068344116210938e+00) (16, 3.19938087463378906250e+00) (17, 5.80734014511108398438e+00) (18, 3.38803243637084960938e+00) (19, -6.10512532293796539307e-02) (20, 1.12870156764984130859e+00) (21, -1.14155039191246032715e-01) (22, 2.45456956326961517334e-02) (23, -8.12274515628814697266e-01) (24, -2.88087636232376098633e-01) (25, 2.25993641652166843414e-03) (26, -1.12727954983711242676e-01) (27, 5.45370674133300781250e+00) (28, -5.70568621158599853516e-01) (29, 1.33622002601623535156e+00) (30, -9.33995783329010009766e-01) (31, 5.61828136444091796875e+00) (32, -1.34751760959625244141e+00) (33, -1.02175319194793701172e+00) (34, 1.10208070278167724609e+00) (35, -2.77247935533523559570e-01) (3, -1.62834608554840087891e+00) (4, 9.15356278419494628906e-01) (5, -1.28595829010009765625e+00) (6, 1.15180909633636474609e+00) (7, 1.88026234507560729980e-01) (8, -9.66683402657508850098e-02) (9, -1.11198461055755615234e+00) (10, 2.03473401069641113281e+00) (11, 2.59158682823181152344e+00) (12, 4.05311203002929687500e+00) (13, 3.23919200897216796875e+00) (14, -5.28762757778167724609e-01) (15, -7.64952123165130615234e-01) (16, -6.42339110374450683594e-01) (17, 4.00281715393066406250e+00) (18, 1.52319788932800292969e-01) (19, 2.96109414100646972656e+00) (20, -7.83425688743591308594e-01) (21, 2.08258008956909179688e+00) (22, 1.76131367683410644531e+00) (23, 1.71305167675018310547e+00) (24, -9.02002692222595214844e-01) (25, 1.89357423782348632812e+00) (26, 1.58831298351287841797e+00) (27, 3.96237325668334960938e+00) (28, 2.18855547904968261719e+00) (29, 1.57333683967590332031e+00) (30, -1.54520177841186523438e+00) (31, 2.14568972587585449219e+00) (32, -1.45114731788635253906e+00) (33, -1.15757000446319580078e+00) (34, 3.38910365104675292969e+00) (35, 1.74188005924224853516e+00) (3, -1.55609834194183349609e+00) (4, 7.33541026711463928223e-02) (5, -8.81739497184753417969e-01) (6, 4.22335004806518554688e+00) (7, -6.88953772187232971191e-02) (8, 7.47105777263641357422e-02) (9, -6.41123890876770019531e-01) (10, 2.41356205940246582031e+00) (11, 3.57728242874145507812e+00) (12, 2.45911455154418945312e+00) (13, 2.52221369743347167969e+00) (14, -1.49158284068107604980e-01) (15, -1.15100014209747314453e+00) (16, -9.90901589393615722656e-01) (17, 4.75544643402099609375e+00) (18, 2.75235772132873535156e+00) (19, 3.04220557212829589844e+00) (20, -9.66391801834106445312e-01) (21, 1.98828315734863281250e+00) (22, 1.76313066482543945312e+00) (23, 3.30310606956481933594e+00) (24, -7.09473252296447753906e-01) (25, 3.33713221549987792969e+00) (26, 2.99659585952758789062e+00) (27, 2.11123585700988769531e+00) (28, 3.49327397346496582031e+00) (29, -9.81435835361480712891e-01) (30, -1.09908854961395263672e+00) (31, 1.94152009487152099609e+00) (32, -7.69803524017333984375e-01) (33, -2.94909983873367309570e-01) (34, 4.41416120529174804688e+00) (35, -9.67259705066680908203e-02) (3, -8.22055160999298095703e-01) (4, -8.14678251743316650391e-01) (5, 1.39792919158935546875e-01) (6, 2.60783195495605468750e+00) (7, 3.26485347747802734375e+00) (8, -3.58728915452957153320e-01) (9, -5.01172959804534912109e-01) (10, 3.41743087768554687500e+00) (11, 3.37341260910034179688e+00) (12, 3.82794308662414550781e+00) (13, 4.91560554504394531250e+00) (14, -5.32709024846553802490e-02) (15, -7.62555539608001708984e-01) (16, 3.28940778970718383789e-01) (17, 4.71727895736694335938e+00) (18, -1.65131103992462158203e+00) (19, 3.37376689910888671875e+00) (20, -8.10994565486907958984e-01) (21, 2.60598492622375488281e+00) (22, 1.90947663784027099609e+00) (23, 1.46494567394256591797e+00) (24, -1.00041806697845458984e+00) (25, 2.32669353485107421875e+00) (26, 3.73858928680419921875e+00) (27, 3.91712570190429687500e+00) (28, 2.19391202926635742188e+00) (29, -8.35215806961059570312e-01) (30, -4.68880712985992431641e-01) (31, 3.12945342063903808594e+00) (32, -3.97765159606933593750e-01) (33, 6.04582488536834716797e-01) (34, 5.23211622238159179688e+00) (35, 1.41765046119689941406e+00) (3, -7.12398529052734375000e-01) (4, 5.75147056579589843750e+00) (5, -1.14949059486389160156e+00) (6, 4.20666933059692382812e+00) (7, -7.64201998710632324219e-01) (8, 5.95169115066528320312e+00) (9, -1.01278412342071533203e+00) (10, -6.74382328987121582031e-01) (11, 5.94226455688476562500e+00) (12, 5.49833917617797851562e+00) (13, -1.05356836318969726562e+00) (14, -9.42755103111267089844e-01) (15, -9.26991224288940429688e-01) (16, -1.01627051830291748047e+00) (17, 5.06459283828735351562e+00) (18, -1.18295204639434814453e+00) (19, 6.17246389389038085938e+00) (20, -1.72106754779815673828e+00) (21, 7.76149868965148925781e-01) (22, 1.89574551582336425781e+00) (23, 6.06084918975830078125e+00) (24, -1.29327666759490966797e+00) (25, 5.85923337936401367188e+00) (26, 5.66051006317138671875e+00) (27, -1.31937849521636962891e+00) (28, 6.07633924484252929688e+00) (29, -6.99539303779602050781e-01) (30, -1.03683435916900634766e+00) (31, -6.14081442356109619141e-01) (32, -8.81179749965667724609e-01) (33, 6.03898096084594726562e+00) (34, 5.11672449111938476562e+00) (35, 5.68569564819335937500e+00) (3, 4.70630264282226562500e+00) (4, 3.82894682884216308594e+00) (5, 5.34517478942871093750e+00) (6, -1.27469789981842041016e+00) (7, 1.64613223075866699219e+00) (8, 3.87956690788269042969e+00) (9, 5.71561574935913085938e+00) (10, 1.49234247207641601562e+00) (11, 4.13930463790893554688e+00) (12, 3.16904991865158081055e-01) (13, -4.79879558086395263672e-01) (14, 6.07664632797241210938e+00) (15, 4.52848482131958007812e+00) (16, 4.96303606033325195312e+00) (17, -8.95439565181732177734e-01) (18, 2.78168249130249023438e+00) (19, 3.77603197097778320312e+00) (20, 4.96444559097290039062e+00) (21, 5.00261962413787841797e-01) (22, -9.83962953090667724609e-01) (23, 3.49788022041320800781e+00) (24, -1.25769066810607910156e+00) (25, 3.39765667915344238281e+00) (26, 3.49345445632934570312e+00) (27, 1.72689449787139892578e+00) (28, 3.72104382514953613281e+00) (29, 9.14012730121612548828e-01) (30, 4.38067054748535156250e+00) (31, 2.13818693161010742188e+00) (32, 5.53576707839965820312e+00) (33, 3.45493483543395996094e+00) (34, 2.06575244665145874023e-02) (35, 3.38843607902526855469e+00) (3, -1.27283620834350585938e+00) (4, -6.58427774906158447266e-01) (5, -1.10506212711334228516e+00) (6, -9.66469287872314453125e-01) (7, -7.57165670394897460938e-01) (8, -7.98591852188110351562e-01) (9, -6.07229530811309814453e-01) (10, 3.12388730049133300781e+00) (11, 6.16699075698852539062e+00) (12, 5.20368003845214843750e+00) (13, -3.04443299770355224609e-01) (14, -1.05446982383728027344e+00) (15, -3.00350666046142578125e-01) (16, -7.58783280849456787109e-01) (17, 5.48962688446044921875e+00) (18, 3.76674294471740722656e+00) (19, 6.02093648910522460938e+00) (20, -1.18595850467681884766e+00) (21, 4.28818750381469726562e+00) (22, 3.23041009902954101562e+00) (23, 5.55730724334716796875e+00) (24, -9.59204614162445068359e-01) (25, 5.83633184432983398438e+00) (26, 4.88617992401123046875e+00) (27, -3.80497127771377563477e-01) (28, 5.55360412597656250000e+00) (29, -3.35890740156173706055e-01) (30, -6.14309370517730712891e-01) (31, -3.03937852382659912109e-01) (32, -9.44417178630828857422e-01) (33, -4.52985793352127075195e-01) (34, 6.00095510482788085938e+00) (35, 5.65654373168945312500e+00) (3, -7.64070272445678710938e-01) (4, -9.31376576423645019531e-01) (5, -9.00084435939788818359e-01) (6, 6.01809644699096679688e+00) (7, 1.70237317681312561035e-01) (8, -1.14880526065826416016e+00) (9, -9.69655871391296386719e-01) (10, 5.30512857437133789062e+00) (11, 5.35953998565673828125e+00) (12, -1.57479748129844665527e-01) (13, -2.69264161586761474609e-01) (14, -1.18241679668426513672e+00) (15, 3.91261529922485351562e+00) (16, 3.53871083259582519531e+00) (17, 1.58384513854980468750e+00) (18, 3.54450774192810058594e+00) (19, 5.58335638046264648438e+00) (20, 3.70328187942504882812e+00) (21, 1.11414694786071777344e+00) (22, 8.69227290153503417969e-01) (23, 5.73476457595825195312e+00) (24, -1.59588217735290527344e+00) (25, 5.58300638198852539062e+00) (26, 5.21396493911743164062e+00) (27, -1.93158537149429321289e-03) (28, 5.28706836700439453125e+00) (29, -9.60459411144256591797e-01) (30, -1.41211295127868652344e+00) (31, -3.67627918720245361328e-01) (32, -4.01194214820861816406e-01) (33, 5.14266252517700195312e+00) (34, 7.34361767768859863281e-01) (35, -6.48268342018127441406e-01) (3, -9.56791639328002929688e-01) (4, -7.41176366806030273438e-01) (5, -7.50651955604553222656e-01) (6, 2.93439292907714843750e+00) (7, 9.70223665237426757812e-01) (8, -7.52739548683166503906e-01) (9, -8.85534346103668212891e-01) (10, 1.96355557441711425781e+00) (11, 2.64827704429626464844e+00) (12, 3.43649983406066894531e+00) (13, 3.47265958786010742188e+00) (14, -9.70189094543457031250e-01) (15, -3.52418988943099975586e-01) (16, -5.07581114768981933594e-01) (17, 4.62872219085693359375e+00) (18, 4.93232160806655883789e-01) (19, 3.19605422019958496094e+00) (20, -4.16468948125839233398e-01) (21, 2.38201594352722167969e+00) (22, 1.70677018165588378906e+00) (23, 2.00365751981735229492e-01) (24, -3.57305169105529785156e-01) (25, -2.14300572872161865234e-01) (26, 1.60071051120758056641e+00) (27, 3.05996894836425781250e+00) (28, 1.44052338600158691406e+00) (29, -3.90639305114746093750e-01) (30, -1.36779546737670898438e+00) (31, 2.98822784423828125000e+00) (32, -1.28218388557434082031e+00) (33, -8.79271447658538818359e-01) (34, 3.84386730194091796875e+00) (35, 9.33896839618682861328e-01) (3, -9.20121073722839355469e-01) (4, -1.24149644374847412109e+00) (5, -4.77530717849731445312e-01) (6, 6.00373077392578125000e+00) (7, -1.08502633869647979736e-01) (8, -1.26690399646759033203e+00) (9, -8.46600472927093505859e-01) (10, 4.13562345504760742188e+00) (11, 5.13153314590454101562e+00) (12, 5.69471597671508789062e+00) (13, 9.44187819957733154297e-01) (14, -3.62735480070114135742e-01) (15, -1.11835145950317382812e+00) (16, 3.48458218574523925781e+00) (17, 5.25455284118652343750e+00) (18, 1.92429041862487792969e+00) (19, 5.13726234436035156250e+00) (20, -9.57144558429718017578e-01) (21, 2.37201862037181854248e-02) (22, 3.42362928390502929688e+00) (23, -7.74925827980041503906e-01) (24, -9.51161980628967285156e-01) (25, -5.89036703109741210938e-01) (26, 5.22023677825927734375e+00) (27, 5.25872850418090820312e+00) (28, 5.47679471969604492188e+00) (29, -7.23003625869750976562e-01) (30, -1.25835192203521728516e+00) (31, -9.61173653602600097656e-01) (32, -1.21318304538726806641e+00) (33, -1.24353432655334472656e+00) (34, 3.32070899009704589844e+00) (35, -3.65768164396286010742e-01) (3, 2.24526500701904296875e+00) (4, -5.74503302574157714844e-01) (5, -4.45596873760223388672e-02) (6, 4.75289869308471679688e+00) (7, 2.39440464973449707031e+00) (8, -7.82540440559387207031e-01) (9, 2.45164299011230468750e+00) (10, 2.50771069526672363281e+00) (11, 2.88005042076110839844e+00) (12, 2.56810927391052246094e+00) (13, 2.74312210083007812500e+00) (14, -2.39838838577270507812e-01) (15, 3.79818034172058105469e+00) (16, 3.70206952095031738281e+00) (17, 4.77220678329467773438e+00) (18, -8.08146655559539794922e-01) (19, 3.38364315032958984375e+00) (20, -4.75862205028533935547e-01) (21, 3.17308521270751953125e+00) (22, 2.30250263214111328125e+00) (23, -1.90744891762733459473e-01) (24, -3.53965729475021362305e-01) (25, 6.49225890636444091797e-01) (26, 3.40072679519653320312e+00) (27, 2.56677889823913574219e+00) (28, -2.36454367637634277344e-01) (29, 2.12640810012817382812e+00) (30, -8.37601482868194580078e-01) (31, 1.80094432830810546875e+00) (32, 1.03092029690742492676e-01) (33, -8.15994262695312500000e-01) (34, 3.79521965980529785156e+00) (35, 2.92014598846435546875e-01) (3, -2.96755403280258178711e-01) (4, 5.75960588455200195312e+00) (5, -6.46683931350708007812e-01) (6, 4.13266324996948242188e+00) (7, 9.08375620841979980469e-01) (8, 5.17945146560668945312e+00) (9, -2.92656749486923217773e-01) (10, 1.73666965961456298828e+00) (11, 5.40901231765747070312e+00) (12, -4.07813966274261474609e-01) (13, -5.42551457881927490234e-01) (14, -4.61103528738021850586e-01) (15, -4.41359192132949829102e-01) (16, -1.36985063552856445312e+00) (17, -5.50902068614959716797e-01) (18, 3.59778690338134765625e+00) (19, -9.60941091179847717285e-02) (20, -1.54736292362213134766e+00) (21, -4.41434741020202636719e-01) (22, 3.31343269348144531250e+00) (23, 5.63898611068725585938e+00) (24, -9.57488775253295898438e-01) (25, 5.58782815933227539062e+00) (26, 5.57513856887817382812e+00) (27, -1.20428574085235595703e+00) (28, 5.75388383865356445312e+00) (29, -3.71510475873947143555e-01) (30, 5.33430099487304687500e+00) (31, -7.45443284511566162109e-01) (32, -9.71695899963378906250e-01) (33, 5.56641006469726562500e+00) (34, -4.34368997812271118164e-01) (35, 4.05199378728866577148e-01) (3, 3.86541199684143066406e+00) (4, 1.13841807842254638672e+00) (5, 4.01931428909301757812e+00) (6, 3.08594536781311035156e+00) (7, -3.30987898632884025574e-03) (8, 1.36029386520385742188e+00) (9, 4.01094818115234375000e+00) (10, 5.83203732967376708984e-01) (11, 5.85654556751251220703e-01) (12, 3.20115900039672851562e+00) (13, 9.76126253604888916016e-01) (14, 4.85044384002685546875e+00) (15, 2.54393339157104492188e+00) (16, 3.84124279022216796875e+00) (17, 2.58540153503417968750e+00) (18, 2.52298641204833984375e+00) (19, 1.09815347194671630859e+00) (20, 2.44932126998901367188e+00) (21, 8.60271975398063659668e-02) (22, 2.76736140251159667969e-01) (23, 8.15519392490386962891e-01) (24, 1.26565158367156982422e+00) (25, 1.28229105472564697266e+00) (26, 1.54532682895660400391e+00) (27, 3.34767913818359375000e+00) (28, 5.19715785980224609375e-01) (29, 3.91770648956298828125e+00) (30, 4.34507226943969726562e+00) (31, 2.21094298362731933594e+00) (32, 4.45495939254760742188e+00) (33, 9.25178587436676025391e-01) (34, 9.04769301414489746094e-01) (35, 4.60118860006332397461e-01) (3, 4.81749439239501953125e+00) (4, 1.52025246620178222656e+00) (5, 5.28703165054321289062e+00) (6, 3.82655525207519531250e+00) (7, 1.53341627120971679688e+00) (8, -2.53294825553894042969e-01) (9, 4.68927907943725585938e+00) (10, 2.40994191169738769531e+00) (11, -6.15230761468410491943e-02) (12, 4.93474388122558593750e+00) (13, 4.76461505889892578125e+00) (14, 5.12906742095947265625e+00) (15, 1.91532444953918457031e+00) (16, 4.31948041915893554688e+00) (17, 2.82013869285583496094e+00) (18, 1.37736201286315917969e+00) (19, -2.63689875602722167969e-01) (20, 1.82677185535430908203e+00) (21, 1.13546538352966308594e+00) (22, 3.64992427825927734375e+00) (23, 2.81460225582122802734e-01) (24, 5.34533619880676269531e-01) (25, -9.85808596014976501465e-02) (26, -4.26800608634948730469e-01) (27, 4.44870376586914062500e+00) (28, -3.61196041107177734375e-01) (29, 4.12375354766845703125e+00) (30, -7.20190256834030151367e-02) (31, 4.90432071685791015625e+00) (32, 2.23679208755493164062e+00) (33, -6.38604283332824707031e-01) (34, 4.91704511642456054688e+00) (35, -7.12025770917534828186e-03) (36, 1.59357583522796630859e+00) (37, 2.43251276016235351562e+00) (38, 2.79472358524799346924e-02) (39, 2.70682525634765625000e+00) (40, 4.26779794692993164062e+00) (41, 8.43547359108924865723e-02) (42, 2.12637042999267578125e+00) (43, 1.17489683628082275391e+00) (44, 2.22127079963684082031e-01) (45, 1.67060136795043945312e+00) (46, 2.07745933532714843750e+00) (47, 1.17653405666351318359e+00) (48, -4.87767726182937622070e-01) (49, 7.59159564971923828125e-01) (50, 9.39586386084556579590e-02) (51, 1.06182503700256347656e+00) (52, 4.32452297210693359375e+00) (53, 1.35732209682464599609e+00) (54, 1.03511369228363037109e+00) (55, 2.84156441688537597656e+00) (56, 1.48547999560832977295e-02) (57, 1.56236386299133300781e+00) (58, 1.00469164550304412842e-01) (59, 2.40763664245605468750e+00) (60, 2.81254386901855468750e+00) (61, 4.42245960235595703125e+00) (62, -2.21634864807128906250e-01) (63, 3.08197617530822753906e+00) (64, 5.48759281635284423828e-01) (65, -9.67120453715324401855e-02) (66, -3.47732841968536376953e-01) (67, -4.17373001575469970703e-01) (68, 3.48102629184722900391e-01) (69, -1.99064552783966064453e-01) (70, 1.64583563804626464844e-01) (71, 7.01684594154357910156e-01) (72, 5.84049642086029052734e-01) (73, 6.12752616405487060547e-01) (74, 2.40937341004610061646e-02) (75, 1.64252901077270507812e+00) (76, 1.86739087104797363281e+00) (77, 6.67398631572723388672e-01) (36, 6.47186219692230224609e-01) (37, 4.73369216918945312500e+00) (38, 2.60932254791259765625e+00) (39, 2.31005239486694335938e+00) (40, 2.63792324066162109375e+00) (41, 4.33332157135009765625e+00) (42, 5.44993519783020019531e-01) (43, 1.61420726776123046875e+00) (44, 2.11793661117553710938e+00) (45, 3.61052274703979492188e+00) (46, -8.39721620082855224609e-01) (47, -3.75697426497936248779e-02) (48, 1.24551200866699218750e+00) (49, 1.94536391645669937134e-02) (50, 1.98036110401153564453e+00) (51, -5.84503054618835449219e-01) (52, 1.83718025684356689453e+00) (53, -5.19659578800201416016e-01) (54, 2.62090110778808593750e+00) (55, 8.80681097507476806641e-01) (56, 2.75738024711608886719e+00) (57, 3.58949713408946990967e-02) (58, 2.89549279212951660156e+00) (59, -1.08124828338623046875e+00) (60, -1.43271207809448242188e+00) (61, 3.00068855285644531250e+00) (62, -5.16610860824584960938e-01) (63, 3.97292232513427734375e+00) (64, 4.54176950454711914062e+00) (65, 2.66531634330749511719e+00) (66, 2.26171898841857910156e+00) (67, 1.80824446678161621094e+00) (68, 2.34610080718994140625e+00) (69, 1.37948369979858398438e+00) (70, 2.92616796493530273438e+00) (71, 3.82075095176696777344e+00) (72, 2.24326395988464355469e+00) (73, 2.45658254623413085938e+00) (74, 2.27050852775573730469e+00) (75, -2.42915689945220947266e-01) (76, 5.21286547183990478516e-01) (77, 3.73790740966796875000e-01) (36, 1.25631785392761230469e+00) (37, 3.45780611038208007812e+00) (38, -3.74039202928543090820e-01) (39, 4.31790447235107421875e+00) (40, 3.45752859115600585938e+00) (41, -1.66822403669357299805e-01) (42, 8.64716887474060058594e-01) (43, -6.87065199017524719238e-02) (44, -4.66982245445251464844e-01) (45, 5.23004341125488281250e+00) (46, 1.22457063198089599609e+00) (47, 1.37639534473419189453e+00) (48, 2.87022069096565246582e-02) (49, 1.76176750659942626953e+00) (50, 2.08401754498481750488e-01) (51, 2.60450434684753417969e+00) (52, 4.36741781234741210938e+00) (53, 1.26536881923675537109e+00) (54, 1.44727861881256103516e+00) (55, 1.39423418045043945312e+00) (56, 8.23573529720306396484e-01) (57, 1.32133030891418457031e+00) (58, 1.17508816719055175781e+00) (59, 2.73430657386779785156e+00) (60, 4.01447010040283203125e+00) (61, 2.45080566406250000000e+00) (62, -4.58495646715164184570e-01) (63, 2.89093589782714843750e+00) (64, -1.06633767485618591309e-01) (65, 6.27809643745422363281e-01) (66, -7.02838718891143798828e-01) (67, -1.05754636228084564209e-01) (68, -1.63809880614280700684e-01) (69, 3.26693326234817504883e-01) (70, -6.40791058540344238281e-02) (71, 1.92061960697174072266e+00) (72, -1.73252284526824951172e-01) (73, 1.40743821859359741211e-01) (74, 5.18898189067840576172e-01) (75, 2.12731552124023437500e+00) (76, 1.64970469474792480469e+00) (77, 3.98680478334426879883e-01) (36, -5.92159152030944824219e-01) (37, -1.64222168922424316406e+00) (38, 2.44171547889709472656e+00) (39, 4.45466661453247070312e+00) (40, 4.19224977493286132812e+00) (41, -1.02782094478607177734e+00) (42, 2.82020783424377441406e+00) (43, 3.86923718452453613281e+00) (44, 1.30190223455429077148e-01) (45, -1.01163506507873535156e+00) (46, 2.97230076789855957031e+00) (47, 2.59096884727478027344e+00) (48, 9.15162414312362670898e-02) (49, 2.84141445159912109375e+00) (50, 3.62726360559463500977e-01) (51, -2.04498291015625000000e+00) (52, 4.15547847747802734375e+00) (53, -1.57626056671142578125e+00) (54, 2.99121212959289550781e+00) (55, 3.32959365844726562500e+00) (56, 7.83174812793731689453e-01) (57, -2.79264390468597412109e-01) (58, -1.25434565544128417969e+00) (59, -3.31395745277404785156e-01) (60, -7.29863345623016357422e-01) (61, -1.12823402881622314453e+00) (62, -7.14201986789703369141e-01) (63, -5.05924403667449951172e-01) (64, 2.53922015428543090820e-01) (65, 3.64106917381286621094e+00) (66, 6.78183376789093017578e-01) (67, 5.14988541603088378906e-01) (68, -2.60085523128509521484e-01) (69, 3.11544060707092285156e+00) (70, 5.89118361473083496094e-01) (71, -1.80990725755691528320e-01) (72, 9.14192385971546173096e-03) (73, -2.38398879766464233398e-01) (74, -6.27110540866851806641e-01) (75, 2.97723817825317382812e+00) (76, 1.24937307834625244141e+00) (77, 4.76656764745712280273e-01) (36, 6.56321406364440917969e-01) (37, 1.52905321121215820312e+00) (38, 6.65372550487518310547e-01) (39, 3.61969017982482910156e+00) (40, 4.09223222732543945312e+00) (41, 1.44532346725463867188e+00) (42, 3.54347324371337890625e+00) (43, 2.49016952514648437500e+00) (44, 2.45782494544982910156e-01) (45, 1.79009449481964111328e+00) (46, 1.55665671825408935547e+00) (47, 1.42990469932556152344e+00) (48, 4.07591238617897033691e-02) (49, 2.46761274337768554688e+00) (50, 7.71248340606689453125e-01) (51, 1.71035432815551757812e+00) (52, 3.64265036582946777344e+00) (53, 2.86277604103088378906e+00) (54, 7.11668252944946289062e-01) (55, 2.70967316627502441406e+00) (56, 2.40671253204345703125e+00) (57, 2.42977571487426757812e+00) (58, 2.14658403396606445312e+00) (59, 2.04444885253906250000e+00) (60, 1.33388829231262207031e+00) (61, 1.65217733383178710938e+00) (62, 1.81273698806762695312e+00) (63, 2.18927860260009765625e+00) (64, 3.33860337734222412109e-01) (65, 3.08136910200119018555e-01) (66, 4.20188546180725097656e-01) (67, 3.21719765663146972656e-01) (68, 1.10757184028625488281e+00) (69, 9.24256801605224609375e-01) (70, 2.73307085037231445312e+00) (71, 9.91652488708496093750e-01) (72, 2.74537444114685058594e-01) (73, 7.15048253536224365234e-01) (74, 6.66289687156677246094e-01) (75, 1.19347631931304931641e+00) (76, 2.35051035881042480469e+00) (77, 7.32535541057586669922e-01) (36, 6.10648930072784423828e-01) (37, 3.54107332229614257812e+00) (38, 3.36581707000732421875e-01) (39, 4.48306894302368164062e+00) (40, 4.28335857391357421875e+00) (41, 1.09063732624053955078e+00) (42, 1.79007172584533691406e+00) (43, 2.63516569137573242188e+00) (44, 8.06938260793685913086e-02) (45, 3.40404963493347167969e+00) (46, 2.51667761802673339844e+00) (47, 2.14513635635375976562e+00) (48, 1.90230393409729003906e+00) (49, 3.03430771827697753906e+00) (50, 1.67052507400512695312e+00) (51, 1.88273918628692626953e+00) (52, 4.25713682174682617188e+00) (53, 2.62929081916809082031e-01) (54, 2.37671756744384765625e+00) (55, 3.41676402091979980469e+00) (56, 6.21957406401634216309e-02) (57, 2.09302473068237304688e+00) (58, 2.26172208786010742188e+00) (59, 1.96120548248291015625e+00) (60, 4.63278007507324218750e+00) (61, 3.99375820159912109375e+00) (62, 1.94821369647979736328e+00) (63, 4.30595350265502929688e+00) (64, -1.72866714000701904297e+00) (65, 1.06370580196380615234e+00) (66, -4.43608254194259643555e-01) (67, 4.58638101816177368164e-01) (68, 2.17091631889343261719e+00) (69, 4.16204571723937988281e-01) (70, 2.21672028303146362305e-01) (71, 6.28943860530853271484e-01) (72, -1.63582697510719299316e-01) (73, -1.61409862339496612549e-02) (74, 2.15420770645141601562e+00) (75, 1.33571350574493408203e+00) (76, 1.38078939914703369141e+00) (77, 1.26805520057678222656e+00) (36, -1.98047354817390441895e-01) (37, 4.70136642456054687500e+00) (38, 1.35309576988220214844e+00) (39, 4.73389768600463867188e+00) (40, 4.84213924407958984375e+00) (41, 6.39657974243164062500e-01) (42, 3.52660447359085083008e-01) (43, -8.64955365657806396484e-01) (44, 3.34189081192016601562e+00) (45, 4.14754676818847656250e+00) (46, 3.65185523033142089844e+00) (47, 2.98009657859802246094e+00) (48, -3.83721351623535156250e-01) (49, 3.22007393836975097656e+00) (50, -1.57487004995346069336e-01) (51, 5.35629987716674804688e-01) (52, 4.20967054367065429688e+00) (53, 8.95860493183135986328e-01) (54, 1.04361188411712646484e+00) (55, -1.99840962886810302734e-03) (56, 4.61425125598907470703e-01) (57, 2.35601782798767089844e+00) (58, -2.43725687265396118164e-01) (59, 3.96765828132629394531e+00) (60, -2.94201105833053588867e-01) (61, 2.44419050216674804688e+00) (62, 3.99984329938888549805e-01) (63, 3.53789019584655761719e+00) (64, -2.73468047380447387695e-01) (65, 7.21717178821563720703e-01) (66, -1.02929925918579101562e+00) (67, -5.17238557338714599609e-01) (68, -1.51147125288844108582e-02) (69, 2.61464595794677734375e+00) (70, -7.17099964618682861328e-01) (71, -1.96507900953292846680e-01) (72, 4.00282192230224609375e+00) (73, -5.07574558258056640625e-01) (74, 7.19204097986221313477e-02) (75, 2.13015183806419372559e-01) (76, 2.15312981605529785156e+00) (77, 1.16125476360321044922e+00) (36, 7.24661648273468017578e-01) (37, 4.50949239730834960938e+00) (38, 2.65715622901916503906e+00) (39, 2.97161459922790527344e+00) (40, 3.25476694107055664062e+00) (41, 3.27576398849487304688e+00) (42, 6.56101524829864501953e-01) (43, 2.83730030059814453125e+00) (44, 1.47587454319000244141e+00) (45, 3.62225723266601562500e+00) (46, 5.85231482982635498047e-01) (47, 6.13528192043304443359e-01) (48, 1.30036282539367675781e+00) (49, -1.80095106363296508789e-01) (50, 3.70086765289306640625e+00) (51, -6.06087028980255126953e-01) (52, 3.42735886573791503906e+00) (53, 5.42999625205993652344e-01) (54, 3.99095249176025390625e+00) (55, 2.46967613697052001953e-01) (56, 2.25932383537292480469e+00) (57, -1.95713847875595092773e-01) (58, 2.13894510269165039062e+00) (59, 5.28304755687713623047e-01) (60, -3.48300009965896606445e-01) (61, 2.36640453338623046875e+00) (62, 2.52089214324951171875e+00) (63, 3.47048139572143554688e+00) (64, 2.00544166564941406250e+00) (65, 2.52556514739990234375e+00) (66, 2.23494386672973632812e+00) (67, 1.36322546005249023438e+00) (68, 3.11549520492553710938e+00) (69, 3.76556158065795898438e+00) (70, 2.12487626075744628906e+00) (71, 3.69196367263793945312e+00) (72, 2.41818737983703613281e+00) (73, 2.40116095542907714844e+00) (74, 3.63418793678283691406e+00) (75, 1.10206282138824462891e+00) (76, 7.61803165078163146973e-02) (77, 8.66305828094482421875e-01) (36, 2.93429327011108398438e+00) (37, 4.10442924499511718750e+00) (38, -6.82748138904571533203e-01) (39, 4.18621063232421875000e+00) (40, 4.97219896316528320312e+00) (41, 3.40116590261459350586e-01) (42, 3.57374334335327148438e+00) (43, 1.82327187061309814453e+00) (44, 1.46873995661735534668e-01) (45, 3.19341802597045898438e+00) (46, 5.22996807098388671875e+00) (47, 4.25167942047119140625e+00) (48, 2.97838360071182250977e-01) (49, 2.74185323715209960938e+00) (50, 1.22213833034038543701e-01) (51, 1.40442597866058349609e+00) (52, 4.99580526351928710938e+00) (53, 2.95501875877380371094e+00) (54, 8.27056646347045898438e-01) (55, 3.35435605049133300781e+00) (56, 3.59040200710296630859e-01) (57, 2.62382054328918457031e+00) (58, 1.17777216434478759766e+00) (59, 3.99196791648864746094e+00) (60, 3.88762140274047851562e+00) (61, 3.50666141510009765625e+00) (62, 1.80674120783805847168e-01) (63, 4.04734706878662109375e+00) (64, 1.14071893692016601562e+00) (65, 3.11865687370300292969e-01) (66, -7.52945896238088607788e-04) (67, -4.03127163648605346680e-01) (68, 8.19935351610183715820e-02) (69, 2.17139467597007751465e-01) (70, 6.38657510280609130859e-01) (71, -2.90116697549819946289e-01) (72, 7.40304827690124511719e-01) (73, 1.33503711223602294922e+00) (74, -1.61654636263847351074e-01) (75, 3.31932234764099121094e+00) (76, 2.00901389122009277344e+00) (77, -2.15956106781959533691e-01) (36, 1.32909524440765380859e+00) (37, 2.63419270515441894531e+00) (38, 2.46840453147888183594e+00) (39, 4.41268539428710937500e+00) (40, 4.43543672561645507812e+00) (41, 3.38050699234008789062e+00) (42, 1.59181094169616699219e+00) (43, 1.92589986324310302734e+00) (44, 2.70134639739990234375e+00) (45, 1.25104963779449462891e+00) (46, 2.07829475402832031250e+00) (47, 1.17376852035522460938e+00) (48, 1.97828149795532226562e+00) (49, 8.34723234176635742188e-01) (50, 1.34152591228485107422e+00) (51, 3.36985135078430175781e+00) (52, 4.36070632934570312500e+00) (53, 1.57260870933532714844e+00) (54, 3.74969577789306640625e+00) (55, 1.72937786579132080078e+00) (56, 2.80302047729492187500e+00) (57, 3.36657494306564331055e-01) (58, 2.24334239959716796875e+00) (59, 3.27545070648193359375e+00) (60, 1.30250000953674316406e+00) (61, 2.23413634300231933594e+00) (62, 1.99181520938873291016e+00) (63, 4.43282890319824218750e+00) (64, 1.75768721103668212891e+00) (65, 1.80964839458465576172e+00) (66, 1.19148123264312744141e+00) (67, 1.75270664691925048828e+00) (68, 1.40934586524963378906e+00) (69, 2.34570121765136718750e+00) (70, 8.06808471679687500000e-01) (71, -6.99516683816909790039e-02) (72, 9.32767450809478759766e-01) (73, 1.14218480885028839111e-01) (74, 1.66726529598236083984e+00) (75, 2.09079170227050781250e+00) (76, 1.30638039112091064453e+00) (77, 1.62941980361938476562e+00) (36, 3.38492298126220703125e+00) (37, 4.04411745071411132812e+00) (38, 1.92818272113800048828e+00) (39, 4.09183311462402343750e+00) (40, 4.84884291887283325195e-01) (41, 4.86370658874511718750e+00) (42, 4.78692471981048583984e-01) (43, -2.15647891163825988770e-02) (44, 4.45068210363388061523e-01) (45, 4.29522180557250976562e+00) (46, 3.35990738868713378906e+00) (47, 3.20025801658630371094e-01) (48, 3.58031225204467773438e+00) (49, 1.56814503669738769531e+00) (50, 2.96433711051940917969e+00) (51, 9.29971635341644287109e-01) (52, 4.10990667343139648438e+00) (53, -9.54006969928741455078e-01) (54, 1.87603235244750976562e+00) (55, -3.23228418827056884766e-01) (56, -1.25308141112327575684e-01) (57, 3.30264419317245483398e-01) (58, -6.28051877021789550781e-01) (59, -5.10518312454223632812e-01) (60, 5.15197575092315673828e-01) (61, 1.13123655319213867188e+00) (62, 8.93983602523803710938e-01) (63, 4.12386512756347656250e+00) (64, 2.42030024528503417969e+00) (65, 1.11180353164672851562e+00) (66, 1.71452152729034423828e+00) (67, 3.73936986923217773438e+00) (68, 8.48315004259347915649e-03) (69, 3.23994922637939453125e+00) (70, -3.71754586696624755859e-01) (71, 2.25979495048522949219e+00) (72, 3.92026782035827636719e+00) (73, 2.29361677169799804688e+00) (74, -1.03312298655509948730e-01) (75, -1.11786007881164550781e+00) (76, -2.55221635103225708008e-01) (77, 3.59804630279541015625e+00) (36, 7.76458501815795898438e-01) (37, 4.96868181228637695312e+00) (38, 1.89285254478454589844e+00) (39, 4.64975297451019287109e-01) (40, 3.71570914983749389648e-01) (41, 2.83136034011840820312e+00) (42, 3.49249720573425292969e+00) (43, 2.77315998077392578125e+00) (44, 3.64212036132812500000e+00) (45, 3.94795846939086914062e+00) (46, -2.84134924411773681641e-01) (47, -5.70138216018676757812e-01) (48, 1.52406942844390869141e+00) (49, 2.36424401402473449707e-01) (50, 3.65204763412475585938e+00) (51, 1.25844144821166992188e+00) (52, 6.86810195446014404297e-01) (53, 5.38447089493274688721e-02) (54, 5.17056703567504882812e-01) (55, 1.42257440090179443359e+00) (56, 3.79847049713134765625e+00) (57, -1.30402579903602600098e-01) (58, 1.46511065959930419922e+00) (59, 2.31866812705993652344e+00) (60, 1.32331573963165283203e+00) (61, 3.12847065925598144531e+00) (62, 1.58690825104713439941e-01) (63, 1.47636914253234863281e+00) (64, 3.07900094985961914062e+00) (65, 3.00764226913452148438e+00) (66, 4.47899293899536132812e+00) (67, 4.13862228393554687500e+00) (68, 2.73244643211364746094e+00) (69, 5.42481803894042968750e+00) (70, 2.39454507827758789062e+00) (71, 4.34465599060058593750e+00) (72, 3.40684747695922851562e+00) (73, 3.02954697608947753906e+00) (74, 3.62141323089599609375e+00) (75, 3.63545060157775878906e+00) (76, -8.86545300483703613281e-01) (77, 1.37053096294403076172e+00) (36, 2.01174020767211914062e+00) (37, 1.66842579841613769531e+00) (38, -2.43564575910568237305e-01) (39, 5.16578960418701171875e+00) (40, 4.97676849365234375000e+00) (41, -4.27139788866043090820e-01) (42, 2.62707066535949707031e+00) (43, -1.59793838858604431152e-01) (44, -5.11131823062896728516e-01) (45, 4.53096294403076171875e+00) (46, 3.25706791877746582031e+00) (47, 1.70691680908203125000e+00) (48, -7.57837891578674316406e-01) (49, 2.53676962852478027344e+00) (50, -7.42976844310760498047e-01) (51, 5.07157862186431884766e-01) (52, 5.45760154724121093750e+00) (53, 2.44034934043884277344e+00) (54, 1.25315022468566894531e+00) (55, 3.49946689605712890625e+00) (56, -7.74228990077972412109e-01) (57, 3.25857973098754882812e+00) (58, 2.41688802838325500488e-01) (59, 2.18914246559143066406e+00) (60, 2.12588620185852050781e+00) (61, 1.87782704830169677734e-01) (62, -1.05728495121002197266e+00) (63, 4.51959180831909179688e+00) (64, -2.12239474058151245117e-02) (65, -2.98499256372451782227e-01) (66, -9.92239654064178466797e-01) (67, -2.96781837940216064453e-01) (68, -5.30342638492584228516e-01) (69, -3.12476366758346557617e-01) (70, -1.90903186798095703125e-01) (71, -3.62874954938888549805e-01) (72, -1.15484273433685302734e+00) (73, -8.15665662288665771484e-01) (74, -8.66282701492309570312e-01) (75, 3.15628242492675781250e+00) (76, 2.44380187988281250000e+00) (77, 1.09955810010433197021e-01) (36, 3.19961476325988769531e+00) (37, 3.85018897056579589844e+00) (38, -2.34074980020523071289e-01) (39, 4.59563779830932617188e+00) (40, 5.11229228973388671875e+00) (41, 8.23344588279724121094e-01) (42, 3.77221798896789550781e+00) (43, 9.50054883956909179688e-01) (44, 6.94309398531913757324e-02) (45, 4.23380851745605468750e+00) (46, 2.18776226043701171875e+00) (47, 4.13226795196533203125e+00) (48, 8.05783420801162719727e-02) (49, 4.74725627899169921875e+00) (50, -4.63892549276351928711e-01) (51, 2.04380726814270019531e+00) (52, 5.34402322769165039062e+00) (53, 3.58423614501953125000e+00) (54, 3.19075882434844970703e-01) (55, 4.74430704116821289062e+00) (56, -6.76696300506591796875e-02) (57, 2.71402645111083984375e+00) (58, 4.34946298599243164062e+00) (59, 3.82585954666137695312e+00) (60, 3.50262308120727539062e+00) (61, 4.08479881286621093750e+00) (62, 3.59073591232299804688e+00) (63, 4.86054658889770507812e+00) (64, 9.23343777656555175781e-01) (65, 2.05993354320526123047e-01) (66, 1.17188787460327148438e+00) (67, -4.23905670642852783203e-01) (68, -2.53081560134887695312e-01) (69, -3.10889035463333129883e-01) (70, 3.24927020072937011719e+00) (71, 2.59636187553405761719e+00) (72, 1.63407409191131591797e+00) (73, 4.04850184917449951172e-01) (74, 1.23905561864376068115e-01) (75, 2.03880643844604492188e+00) (76, 3.10434842109680175781e+00) (77, 5.75327873229980468750e-01) (36, -3.69562238454818725586e-01) (37, 4.41405820846557617188e+00) (38, -3.91507714986801147461e-01) (39, 5.62875604629516601562e+00) (40, 5.49828004837036132812e+00) (41, 5.50592243671417236328e-01) (42, 3.40591144561767578125e+00) (43, 1.04016804695129394531e+00) (44, -1.04274320602416992188e+00) (45, 4.04597330093383789062e+00) (46, 3.69275474548339843750e+00) (47, 2.61762571334838867188e+00) (48, -6.50905907154083251953e-01) (49, 3.28480434417724609375e+00) (50, -8.14759135246276855469e-01) (51, 1.28351795673370361328e+00) (52, 5.16418313980102539062e+00) (53, 4.71911191940307617188e+00) (54, 6.72296345233917236328e-01) (55, 4.09825849533081054688e+00) (56, 6.25182688236236572266e-01) (57, 2.70948624610900878906e+00) (58, 2.07498884201049804688e+00) (59, 3.40052294731140136719e+00) (60, 3.15365195274353027344e+00) (61, 3.61371064186096191406e+00) (62, -6.95801228284835815430e-02) (63, 5.17530584335327148438e+00) (64, 1.58385169506072998047e+00) (65, -4.86805476248264312744e-02) (66, 1.14225172996520996094e+00) (67, -1.04720461368560791016e+00) (68, -4.57395404577255249023e-01) (69, -4.93315696716308593750e-01) (70, 9.16271090507507324219e-01) (71, 4.15896713733673095703e-01) (72, 1.63355529308319091797e-01) (73, 2.47438907623291015625e-01) (74, -6.81858658790588378906e-01) (75, 3.47088623046875000000e+00) (76, 4.14236783981323242188e+00) (77, 4.11972356960177421570e-03) (36, 6.79043412208557128906e-01) (37, -1.33810544013977050781e+00) (38, 6.24953508377075195312e-01) (39, 3.80203366279602050781e+00) (40, 3.49287509918212890625e+00) (41, 2.46327564120292663574e-01) (42, 6.11713290214538574219e-01) (43, 5.90244948863983154297e-01) (44, 9.60935711860656738281e-01) (45, 2.04228579998016357422e-01) (46, 2.37803959846496582031e+00) (47, -7.49173402786254882812e-01) (48, 1.48968243598937988281e+00) (49, -3.22786897420883178711e-01) (50, 6.65462434291839599609e-01) (51, -1.36841678619384765625e+00) (52, 3.95046257972717285156e+00) (53, 3.98875772953033447266e-01) (54, 2.00398635864257812500e+00) (55, 1.89020931720733642578e-01) (56, -1.93925127387046813965e-01) (57, 5.28031289577484130859e-01) (58, -1.14832520484924316406e-02) (59, -9.36008214950561523438e-01) (60, 7.36396729946136474609e-01) (61, -4.81998443603515625000e-01) (62, 8.72998714447021484375e-01) (63, 1.60889840126037597656e+00) (64, 1.01999950408935546875e+00) (65, 3.21871459484100341797e-01) (66, 4.58766281604766845703e-01) (67, 1.30760788917541503906e+00) (68, 4.19874727725982666016e-01) (69, 1.32823252677917480469e+00) (70, -4.03525233268737792969e-01) (71, -2.87888556718826293945e-01) (72, -1.27470123767852783203e+00) (73, -5.22228717803955078125e-01) (74, 1.27142202854156494141e+00) (75, 5.36722481250762939453e-01) (76, 2.38258540630340576172e-02) (77, 1.64197647571563720703e+00) (36, 2.09652543067932128906e-01) (37, 6.03907966613769531250e+00) (38, 2.89627194404602050781e+00) (39, 3.81231427192687988281e+00) (40, 4.45862913131713867188e+00) (41, 2.27032256126403808594e+00) (42, 2.65393763780593872070e-01) (43, 1.01914882659912109375e+00) (44, -3.33344042301177978516e-02) (45, 4.83222436904907226562e+00) (46, -8.32071006298065185547e-01) (47, 1.08584016561508178711e-01) (48, -2.52517729997634887695e-01) (49, 3.36421084403991699219e+00) (50, -2.91018724441528320312e-01) (51, 2.41791629791259765625e+00) (52, 4.67451238632202148438e+00) (53, -8.54969739913940429688e-01) (54, 5.55747151374816894531e-01) (55, 2.76039779186248779297e-01) (56, 3.99793958663940429688e+00) (57, 3.61691284179687500000e+00) (58, 1.52404677867889404297e+00) (59, 1.08853983879089355469e+00) (60, 9.42591845989227294922e-01) (61, 4.66606903076171875000e+00) (62, 2.37993311882019042969e+00) (63, 5.20616674423217773438e+00) (64, 3.37528538703918457031e+00) (65, 3.99304151535034179688e+00) (66, 3.38714504241943359375e+00) (67, -2.56603300571441650391e-01) (68, -1.22532472014427185059e-01) (69, 2.82925963401794433594e+00) (70, 2.72387123107910156250e+00) (71, 3.69387483596801757812e+00) (72, 3.51992034912109375000e+00) (73, 1.51017177104949951172e+00) (74, -1.01444400846958160400e-01) (75, -6.44856035709381103516e-01) (76, 2.90924882888793945312e+00) (77, 8.44647511839866638184e-02) (36, 1.00517272949218750000e+00) (37, 5.84208822250366210938e+00) (38, 2.34462356567382812500e+00) (39, 1.07681322097778320312e+00) (40, 4.32909727096557617188e+00) (41, 2.86250829696655273438e+00) (42, 1.46592056751251220703e+00) (43, 3.65314674377441406250e+00) (44, 1.27530610561370849609e+00) (45, 4.92676973342895507812e+00) (46, 8.66153180599212646484e-01) (47, 1.74075871706008911133e-01) (48, 4.92407798767089843750e-01) (49, 4.05161440372467041016e-01) (50, 9.70333755016326904297e-01) (51, -8.51806253194808959961e-02) (52, 4.06746959686279296875e+00) (53, 4.37512487173080444336e-01) (54, 1.54117023944854736328e+00) (55, 3.97891908884048461914e-01) (56, 2.73315072059631347656e+00) (57, 3.84421288967132568359e-01) (58, 3.17116093635559082031e+00) (59, -4.84865009784698486328e-01) (60, 6.10678672790527343750e-01) (61, 4.14365911483764648438e+00) (62, -1.16045057773590087891e-01) (63, 3.95184135437011718750e+00) (64, 2.53779172897338867188e+00) (65, 4.27029466629028320312e+00) (66, 1.28584158420562744141e+00) (67, 8.54906678199768066406e-01) (68, 1.01317119598388671875e+00) (69, 9.18271124362945556641e-01) (70, 7.87992238998413085938e-01) (71, 3.45049476623535156250e+00) (72, 3.47106289863586425781e+00) (73, 1.66243159770965576172e+00) (74, 1.31486690044403076172e+00) (75, 1.04817914962768554688e+00) (76, -2.82058238983154296875e-01) (77, 9.95624303817749023438e-01) (36, 1.88030004501342773438e-01) (37, 4.92950296401977539062e+00) (38, -7.48695373535156250000e-01) (39, 5.92323160171508789062e+00) (40, 5.18523883819580078125e+00) (41, 1.04660868644714355469e+00) (42, 6.84600532054901123047e-01) (43, 5.56685864925384521484e-01) (44, -7.73437201976776123047e-01) (45, 5.00848436355590820312e+00) (46, -9.89094793796539306641e-01) (47, 5.97606539726257324219e-01) (48, -4.57056701183319091797e-01) (49, 2.03300142288208007812e+00) (50, -8.87734174728393554688e-01) (51, -6.93153321743011474609e-01) (52, 5.69415998458862304688e+00) (53, 1.37388825416564941406e+00) (54, 2.06560277938842773438e+00) (55, 1.44944369792938232422e+00) (56, 2.71170139312744140625e+00) (57, 1.56410026550292968750e+00) (58, 1.24612092971801757812e-01) (59, 2.96813279390335083008e-01) (60, 1.93822169303894042969e+00) (61, 3.61447238922119140625e+00) (62, 1.99429243803024291992e-01) (63, 3.05829811096191406250e+00) (64, 3.45709538459777832031e+00) (65, 1.34632873535156250000e+00) (66, 9.79096710681915283203e-01) (67, -5.05994081497192382812e-01) (68, -7.76311814785003662109e-01) (69, -8.69068279862403869629e-02) (70, -1.64815708994865417480e-01) (71, 2.58865952491760253906e+00) (72, 3.88151454925537109375e+00) (73, 1.38829082250595092773e-01) (74, -5.44973611831665039062e-01) (75, 2.09780544042587280273e-01) (76, 1.15265381336212158203e+00) (77, -7.73272693157196044922e-01) (36, -1.26091825962066650391e+00) (37, -1.35619139671325683594e+00) (38, 4.30164575576782226562e+00) (39, -6.77181184291839599609e-01) (40, -1.34055304527282714844e+00) (41, 1.09697771072387695312e+00) (42, -1.07472193241119384766e+00) (43, -3.63895177841186523438e-01) (44, 5.20973014831542968750e+00) (45, 5.47485542297363281250e+00) (46, -9.52437460422515869141e-01) (47, -1.06284344196319580078e+00) (48, 5.61792802810668945312e+00) (49, -1.13008785247802734375e+00) (50, 5.80978107452392578125e+00) (51, -2.82325655221939086914e-01) (52, -1.26587152481079101562e+00) (53, -1.41023039817810058594e+00) (54, 5.25220584869384765625e+00) (55, -1.19861590862274169922e+00) (56, 2.50492501258850097656e+00) (57, -1.16720855236053466797e+00) (58, 4.44060277938842773438e+00) (59, -1.01246631145477294922e+00) (60, -1.45367479324340820312e+00) (61, 2.71054923534393310547e-01) (62, 5.46381807327270507812e+00) (63, -4.08745646476745605469e-01) (64, 3.61777432262897491455e-02) (65, 1.57761693000793457031e+00) (66, 4.06700611114501953125e+00) (67, 5.18292713165283203125e+00) (68, 5.21419525146484375000e+00) (69, 6.01075124740600585938e+00) (70, -9.05411839485168457031e-01) (71, 3.44063520431518554688e+00) (72, 5.95780849456787109375e+00) (73, 4.00997781753540039062e+00) (74, 5.78758859634399414062e+00) (75, -1.14576804637908935547e+00) (76, -5.46837151050567626953e-01) (77, 5.88816213607788085938e+00) (36, 1.23770725727081298828e+00) (37, 3.42427182197570800781e+00) (38, 1.89753067493438720703e+00) (39, 3.41939759254455566406e+00) (40, 3.47788476943969726562e+00) (41, 1.49417674541473388672e+00) (42, 5.32710933685302734375e+00) (43, 2.15730595588684082031e+00) (44, 1.16940379142761230469e+00) (45, 2.75252366065979003906e+00) (46, 1.19043362140655517578e+00) (47, -1.08232259750366210938e+00) (48, 1.22550523281097412109e+00) (49, -2.15060681104660034180e-01) (50, 1.90127468109130859375e+00) (51, -7.19587951898574829102e-02) (52, 3.74155616760253906250e+00) (53, 2.76014614105224609375e+00) (54, 3.20032739639282226562e+00) (55, -9.95446622371673583984e-01) (56, 1.34022623300552368164e-01) (57, -1.10543394088745117188e+00) (58, -1.03461897373199462891e+00) (59, 1.12970739603042602539e-01) (60, 8.17297101020812988281e-01) (61, 1.70258378982543945312e+00) (62, 1.94714665412902832031e+00) (63, 3.66368198394775390625e+00) (64, 2.05366396903991699219e+00) (65, 2.17930316925048828125e+00) (66, 1.39496600627899169922e+00) (67, 1.30043780803680419922e+00) (68, 1.56871223449707031250e+00) (69, 8.53163897991180419922e-01) (70, 1.71529650688171386719e+00) (71, 2.46816182136535644531e+00) (72, 9.07748565077781677246e-02) (73, 8.97073984146118164062e-01) (74, 8.45071971416473388672e-01) (75, -5.71348488330841064453e-01) (76, 1.85835212469100952148e-01) (77, 1.14152562618255615234e+00) (36, 1.74158647656440734863e-01) (37, 2.99987006187438964844e+00) (38, 1.73628330230712890625e-01) (39, 4.11219787597656250000e+00) (40, 4.32532739639282226562e+00) (41, 3.88068795204162597656e+00) (42, 4.05622291564941406250e+00) (43, 1.00460326671600341797e+00) (44, 4.31645661592483520508e-01) (45, 2.22735095024108886719e+00) (46, 1.74605822563171386719e+00) (47, 3.44645762443542480469e+00) (48, 2.48134836554527282715e-01) (49, 4.28984260559082031250e+00) (50, 9.40460324287414550781e-01) (51, 1.92485296726226806641e+00) (52, 4.57607603073120117188e+00) (53, 2.47062635421752929688e+00) (54, 7.14050054550170898438e-01) (55, 4.12500762939453125000e+00) (56, 2.69993972778320312500e+00) (57, 2.95374131202697753906e+00) (58, 3.24826550483703613281e+00) (59, 2.66111850738525390625e+00) (60, 3.51622796058654785156e+00) (61, 4.00004339218139648438e+00) (62, 7.19644248485565185547e-01) (63, 2.48010587692260742188e+00) (64, 2.94172430038452148438e+00) (65, 2.92890191078186035156e+00) (66, 1.56881666183471679688e+00) (67, 9.05023574829101562500e-01) (68, 1.16086125373840332031e+00) (69, 1.09936344623565673828e+00) (70, 2.82805967330932617188e+00) (71, 2.31587409973144531250e+00) (72, 2.56212186813354492188e+00) (73, 7.08748817443847656250e-01) (74, 1.00578331947326660156e+00) (75, 2.93072414398193359375e+00) (76, 2.92605066299438476562e+00) (77, 9.23429906368255615234e-01) (36, 3.44474720954895019531e+00) (37, -1.26924976706504821777e-01) (38, 7.90456593036651611328e-01) (39, 2.10357356071472167969e+00) (40, 7.39106655120849609375e-01) (41, 8.72383713722229003906e-01) (42, 4.53649997711181640625e-01) (43, 3.43694996833801269531e+00) (44, 3.58756303787231445312e+00) (45, 2.87562370300292968750e-01) (46, 2.38134670257568359375e+00) (47, 3.44970643520355224609e-01) (48, 3.54298377037048339844e+00) (49, -1.43254444003105163574e-01) (50, 3.83607196807861328125e+00) (51, 6.29132747650146484375e-01) (52, 5.31603455543518066406e-01) (53, 5.73456048965454101562e-01) (54, 2.06050038337707519531e+00) (55, 1.50818452239036560059e-01) (56, 1.66978156566619873047e+00) (57, -2.77775138616561889648e-01) (58, -4.00359444320201873779e-02) (59, 2.93657159805297851562e+00) (60, 2.71254730224609375000e+00) (61, 2.35430136322975158691e-01) (62, 4.99844938516616821289e-01) (63, 5.40170192718505859375e-01) (64, 7.16023981571197509766e-01) (65, 2.82383728027343750000e+00) (66, 4.90512490272521972656e-01) (67, 4.01797533035278320312e+00) (68, 3.39193511009216308594e+00) (69, 3.97570943832397460938e+00) (70, 2.02522563934326171875e+00) (71, 1.78134608268737792969e+00) (72, 9.39696013927459716797e-01) (73, -2.76831127703189849854e-02) (74, 3.56252384185791015625e+00) (75, 1.76304543018341064453e+00) (76, 1.34716629981994628906e+00) (77, 3.59142756462097167969e+00) (36, 4.15338468551635742188e+00) (37, 6.18337273597717285156e-01) (38, 2.44562864303588867188e+00) (39, 3.22854495048522949219e+00) (40, 2.88328027725219726562e+00) (41, 2.24016308784484863281e+00) (42, 1.90641415119171142578e+00) (43, 2.28936338424682617188e+00) (44, 4.27495002746582031250e+00) (45, -6.33591234683990478516e-01) (46, 1.69276857376098632812e+00) (47, 2.31553721427917480469e+00) (48, 4.20932388305664062500e+00) (49, 1.40519893169403076172e+00) (50, 5.16576004028320312500e+00) (51, 2.29242706298828125000e+00) (52, -6.92744374275207519531e-01) (53, 2.35366296768188476562e+00) (54, 3.50432181358337402344e+00) (55, 8.39412286877632141113e-02) (56, 1.14952850341796875000e+00) (57, 1.33697712421417236328e+00) (58, 1.56814146041870117188e+00) (59, 2.19835805892944335938e+00) (60, 1.33948063850402832031e+00) (61, 2.53936266899108886719e+00) (62, 2.32989382743835449219e+00) (63, 3.14963030815124511719e+00) (64, 2.31441307067871093750e+00) (65, 2.75455617904663085938e+00) (66, 1.08426165580749511719e+00) (67, 4.45131063461303710938e+00) (68, 4.77156114578247070312e+00) (69, 3.16662740707397460938e+00) (70, 3.13775300979614257812e+00) (71, 1.89771616458892822266e+00) (72, 2.08255100250244140625e+00) (73, 1.08884668350219726562e+00) (74, 4.35971355438232421875e+00) (75, 1.23513293266296386719e+00) (76, 3.06962776184082031250e+00) (77, 4.33839511871337890625e+00) (36, 7.20034003257751464844e-01) (37, 4.09206468611955642700e-03) (38, 9.41900014877319335938e-01) (39, 3.85876607894897460938e+00) (40, 3.22632455825805664062e+00) (41, 1.10744071006774902344e+00) (42, 1.55633568763732910156e+00) (43, -6.16765171289443969727e-02) (44, 1.44701337814331054688e+00) (45, 4.83302414417266845703e-01) (46, 2.83293843269348144531e+00) (47, -5.64719200134277343750e-01) (48, 1.34903085231781005859e+00) (49, -1.45195651054382324219e+00) (50, 8.94062638282775878906e-01) (51, -8.30506801605224609375e-01) (52, 3.91885185241699218750e+00) (53, 1.51250874996185302734e+00) (54, 2.29635334014892578125e+00) (55, 6.50709494948387145996e-02) (56, -3.78821432590484619141e-01) (57, 8.87461662292480468750e-01) (58, -8.32013130187988281250e-01) (59, 1.08064305782318115234e+00) (60, -9.37478303909301757812e-01) (61, -9.09710288047790527344e-01) (62, 8.69822502136230468750e-01) (63, 9.54045176506042480469e-01) (64, 9.67583298683166503906e-01) (65, 1.39092075824737548828e+00) (66, -3.70840609073638916016e-01) (67, 1.57146060466766357422e+00) (68, 9.18200552463531494141e-01) (69, 7.70996093750000000000e-01) (70, -1.06472566723823547363e-01) (71, 9.25586283206939697266e-01) (72, 6.48159861564636230469e-01) (73, -1.61797687411308288574e-01) (74, 1.60776209831237792969e+00) (75, 5.81230521202087402344e-01) (76, -2.96721197664737701416e-02) (77, 1.32630515098571777344e+00) (36, 1.95904660224914550781e+00) (37, 4.44352674484252929688e+00) (38, 2.18488001823425292969e+00) (39, 9.41736757755279541016e-01) (40, 3.04365229606628417969e+00) (41, 1.24854934215545654297e+00) (42, 1.16559433937072753906e+00) (43, 2.80738043785095214844e+00) (44, 1.81563282012939453125e+00) (45, 4.94203424453735351562e+00) (46, -4.30978715419769287109e-01) (47, 3.43884587287902832031e-01) (48, 1.90958487987518310547e+00) (49, 2.73089319467544555664e-01) (50, 2.43623161315917968750e+00) (51, -1.08172369003295898438e+00) (52, 2.29555678367614746094e+00) (53, 1.84597194194793701172e+00) (54, 6.97327733039855957031e-01) (55, 2.90423601865768432617e-01) (56, 1.13368117809295654297e+00) (57, 1.19448482990264892578e+00) (58, -2.95799493789672851562e-01) (59, -2.87775427103042602539e-01) (60, -1.44563630223274230957e-01) (61, 2.21265959739685058594e+00) (62, 5.24461507797241210938e-01) (63, 2.75799918174743652344e+00) (64, 1.95524919033050537109e+00) (65, 2.21355772018432617188e+00) (66, 3.27792811393737792969e+00) (67, 2.29887580871582031250e+00) (68, 2.08116197586059570312e+00) (69, 3.67489600181579589844e+00) (70, 2.91561222076416015625e+00) (71, 5.36676645278930664062e+00) (72, 2.79911780357360839844e+00) (73, 1.50389945507049560547e+00) (74, 2.21494340896606445312e+00) (75, 5.42531609535217285156e-01) (76, 1.95711243152618408203e+00) (77, 1.68814349174499511719e+00) (36, -3.96136552095413208008e-01) (37, -7.92392969131469726562e-01) (38, 3.89875125885009765625e+00) (39, -7.38236427307128906250e-01) (40, -8.22122752666473388672e-01) (41, 3.84438395500183105469e+00) (42, -7.29598462581634521484e-01) (43, 1.83581113815307617188e-01) (44, 5.54545307159423828125e+00) (45, 5.18207073211669921875e+00) (46, -1.66834068298339843750e+00) (47, -7.16905951499938964844e-01) (48, 5.31121063232421875000e+00) (49, 1.83284449577331542969e+00) (50, 5.98478317260742187500e+00) (51, -1.24896967411041259766e+00) (52, -7.45982229709625244141e-01) (53, -1.10023272037506103516e+00) (54, 2.86601758003234863281e+00) (55, -6.27396464347839355469e-01) (56, 1.84191274642944335938e+00) (57, 2.24016022682189941406e+00) (58, 5.15527129173278808594e-01) (59, -1.65085566043853759766e+00) (60, -1.37403440475463867188e+00) (61, -8.61069023609161376953e-01) (62, -6.80612027645111083984e-01) (63, -7.47711598873138427734e-01) (64, 3.53761982917785644531e+00) (65, 6.28683447837829589844e-01) (66, 2.96457672119140625000e+00) (67, 5.51242876052856445312e+00) (68, 5.96048355102539062500e+00) (69, 6.21637392044067382812e+00) (70, 1.68165326118469238281e-01) (71, -3.65356385707855224609e-01) (72, 5.81478977203369140625e+00) (73, 2.19598126411437988281e+00) (74, 5.28087139129638671875e+00) (75, 5.04177474975585937500e+00) (76, 1.69743847846984863281e+00) (77, 5.33638477325439453125e+00) (36, 1.57841444015502929688e+00) (37, -2.61128783226013183594e-01) (38, 1.30092537403106689453e+00) (39, 3.36124038696289062500e+00) (40, 3.14317989349365234375e+00) (41, 3.11286020278930664062e+00) (42, 1.21382963657379150391e+00) (43, 2.58737653493881225586e-01) (44, 5.76192522048950195312e+00) (45, -3.31274002790451049805e-01) (46, -1.02244424819946289062e+00) (47, -2.34177410602569580078e-01) (48, 2.15174102783203125000e+00) (49, 8.05551052093505859375e-01) (50, 1.96015655994415283203e+00) (51, -6.00680470466613769531e-01) (52, 2.67723488807678222656e+00) (53, -7.08719670772552490234e-01) (54, 7.46823370456695556641e-01) (55, -1.04426443576812744141e+00) (56, 1.24717891216278076172e+00) (57, -2.33808159828186035156e-01) (58, -1.45824790000915527344e+00) (59, -1.05706000328063964844e+00) (60, -3.59906315803527832031e-01) (61, 1.30802977085113525391e+00) (62, 1.21804714202880859375e+00) (63, -1.48470014333724975586e-01) (64, 2.01073956489562988281e+00) (65, 1.40541076660156250000e+00) (66, 8.91613960266113281250e-01) (67, 1.58112490177154541016e+00) (68, 2.33028578758239746094e+00) (69, 5.63305807113647460938e+00) (70, 2.37488698959350585938e+00) (71, 1.52160251140594482422e+00) (72, -2.64431744813919067383e-01) (73, 2.35189127922058105469e+00) (74, 5.36647176742553710938e+00) (75, 4.72548693418502807617e-01) (76, -4.85555142164230346680e-01) (77, 2.25797867774963378906e+00) (36, 1.37650415301322937012e-01) (37, 3.48729801177978515625e+00) (38, 2.00414609909057617188e+00) (39, 1.30009973049163818359e+00) (40, 1.08895063400268554688e+00) (41, 2.15693664550781250000e+00) (42, 3.74862730503082275391e-01) (43, 1.35193037986755371094e+00) (44, 4.16024446487426757812e+00) (45, 3.17456269264221191406e+00) (46, 1.76780000329017639160e-01) (47, 2.09230041503906250000e+00) (48, 7.25726366043090820312e-01) (49, -7.58539676666259765625e-01) (50, 3.85824394226074218750e+00) (51, 1.78913021087646484375e+00) (52, 1.17598092555999755859e+00) (53, 2.11815670132637023926e-01) (54, 2.87099570035934448242e-01) (55, -3.09936366975307464600e-02) (56, 2.12887620925903320312e+00) (57, -6.13720953464508056641e-01) (58, 2.95214438438415527344e+00) (59, 1.28327572345733642578e+00) (60, 1.11253440380096435547e+00) (61, 6.02534711360931396484e-01) (62, -1.63141712546348571777e-01) (63, 1.11584341526031494141e+00) (64, 2.81388521194458007812e+00) (65, 1.82793807983398437500e+00) (66, 4.02504062652587890625e+00) (67, 3.95281767845153808594e+00) (68, 4.03397464752197265625e+00) (69, 3.82643008232116699219e+00) (70, 1.02065145969390869141e+00) (71, 2.77859926223754882812e+00) (72, 3.79644989967346191406e+00) (73, 2.19440364837646484375e+00) (74, 3.44175386428833007812e+00) (75, 2.35956698656082153320e-01) (76, 1.67275130748748779297e+00) (77, 8.66425812244415283203e-01) (36, 8.53759229183197021484e-01) (37, 4.78279829025268554688e+00) (38, 7.74375677108764648438e-01) (39, 1.52711415290832519531e+00) (40, 4.30774641036987304688e+00) (41, 2.56531333923339843750e+00) (42, 3.50223392248153686523e-01) (43, 4.43893432617187500000e+00) (44, 1.25125253200531005859e+00) (45, 5.27339267730712890625e+00) (46, -1.29168832302093505859e+00) (47, -4.89078134298324584961e-01) (48, 4.45229381322860717773e-01) (49, -4.00589585304260253906e-01) (50, 8.28635275363922119141e-01) (51, -1.34996724128723144531e+00) (52, 4.31419467926025390625e+00) (53, 7.10139453411102294922e-01) (54, 1.15328228473663330078e+00) (55, 3.14993023872375488281e-01) (56, 1.45722556114196777344e+00) (57, 2.46583247184753417969e+00) (58, 9.74080622196197509766e-01) (59, -7.16000676155090332031e-01) (60, -1.13097321987152099609e+00) (61, 8.25842976570129394531e-01) (62, -1.24028205871582031250e+00) (63, 1.15349638462066650391e+00) (64, 2.80111026763916015625e+00) (65, 1.82575511932373046875e+00) (66, -2.38583371043205261230e-01) (67, 6.28824353218078613281e-01) (68, 7.77506172657012939453e-01) (69, 4.56922435760498046875e+00) (70, 1.46482133865356445312e+00) (71, 2.40042638778686523438e+00) (72, 4.54329395294189453125e+00) (73, 2.17902040481567382812e+00) (74, 6.19190573692321777344e-01) (75, 2.98178255558013916016e-01) (76, 2.44034409523010253906e+00) (77, 9.33855772018432617188e-01) (36, 1.47803950309753417969e+00) (37, 2.69076585769653320312e-01) (38, 1.73439741134643554688e+00) (39, 4.15039253234863281250e+00) (40, 4.29984998703002929688e+00) (41, 2.72281002998352050781e+00) (42, -9.79747343808412551880e-03) (43, 3.29301834106445312500e+00) (44, 3.22617292404174804688e+00) (45, 1.78660202026367187500e+00) (46, -2.44578495621681213379e-02) (47, 2.39178013801574707031e+00) (48, 2.05847740173339843750e+00) (49, 2.11204767227172851562e+00) (50, 2.59794926643371582031e+00) (51, 2.79283285140991210938e+00) (52, 1.70668387413024902344e+00) (53, -7.76986628770828247070e-02) (54, 4.64575958251953125000e+00) (55, 1.46975934505462646484e+00) (56, 1.56392514705657958984e+00) (57, 1.17004787921905517578e+00) (58, 1.33523380756378173828e+00) (59, 2.59084749221801757812e+00) (60, 3.02726078033447265625e+00) (61, 3.15954017639160156250e+00) (62, -1.69768735766410827637e-01) (63, 4.27871227264404296875e+00) (64, 2.21872234344482421875e+00) (65, 2.34860110282897949219e+00) (66, 4.09608811140060424805e-01) (67, 2.25842928886413574219e+00) (68, 3.88845968246459960938e+00) (69, 3.97491741180419921875e+00) (70, 3.66988301277160644531e+00) (71, 2.40609192848205566406e+00) (72, 1.79663980007171630859e+00) (73, 1.33360505104064941406e+00) (74, 1.65788793563842773438e+00) (75, 7.51044929027557373047e-01) (76, 1.57144653797149658203e+00) (77, 1.83860599994659423828e+00) (36, -4.80953931808471679688e-01) (37, -1.06832277774810791016e+00) (38, 2.56430554389953613281e+00) (39, -1.13871979713439941406e+00) (40, -1.04073071479797363281e+00) (41, -3.92716616392135620117e-01) (42, -9.06876444816589355469e-01) (43, -7.37222909927368164062e-01) (44, 6.02385377883911132812e+00) (45, -1.23109006881713867188e+00) (46, -1.44977355003356933594e+00) (47, 